{"vocab": ["absurd", "access", "admin", "alert", "anchor", "artefact", "artist", "auth", "bind", "cache", "call", "can", "channel", "chat", "clean", "code", "context", "copy", "create", "decrypt", "delete", "deny", "dog", "drive", "encrypt", "exit", "fame", "feature", "fetch", "filter", "fiscal", "fox", "free", "frequent", "fringe", "future", "giraffe", "grant", "group", "guest", "guide", "hash", "index", "indicate", "init", "jungle", "key", "ladder", "layer", "link", "load", "lock", "match", "member", "memory", "mention", "merge", "message", "model", "mount", "move", "neural", "notify", "novel", "owner", "pause", "permit", "phrase", "ping", "post", "prepare", "private", "public", "query", "rank", "react", "read", "recall", "remind", "repair", "reply", "reset", "result", "resume", "revoke", "risk", "role", "sad", "sadness", "salt", "same", "save", "scare", "score", "search", "secure", "series", "share", "shell", "sign", "soccer", "sort", "spell", "sphere", "split", "start", "state", "stop", "store", "stuff", "sync", "thread", "today", "token", "train", "trust", "unload", "unmount", "unusual", "update", "user", "vapor", "verify", "voice", "volcano", "west", "wolf", "write"], "word_to_idx": {"absurd": 0, "access": 1, "admin": 2, "alert": 3, "anchor": 4, "artefact": 5, "artist": 6, "auth": 7, "bind": 8, "cache": 9, "call": 10, "can": 11, "channel": 12, "chat": 13, "clean": 14, "code": 15, "context": 16, "copy": 17, "create": 18, "decrypt": 19, "delete": 20, "deny": 21, "dog": 22, "drive": 23, "encrypt": 24, "exit": 25, "fame": 26, "feature": 27, "fetch": 28, "filter": 29, "fiscal": 30, "fox": 31, "free": 32, "frequent": 33, "fringe": 34, "future": 35, "giraffe": 36, "grant": 37, "group": 38, "guest": 39, "guide": 40, "hash": 41, "index": 42, "indicate": 43, "init": 44, "jungle": 45, "key": 46, "ladder": 47, "layer": 48, "link": 49, "load": 50, "lock": 51, "match": 52, "member": 53, "memory": 54, "mention": 55, "merge": 56, "message": 57, "model": 58, "mount": 59, "move": 60, "neural": 61, "notify": 62, "novel": 63, "owner": 64, "pause": 65, "permit": 66, "phrase": 67, "ping": 68, "post": 69, "prepare": 70, "private": 71, "public": 72, "query": 73, "rank": 74, "react": 75, "read": 76, "recall": 77, "remind": 78, "repair": 79, "reply": 80, "reset": 81, "result": 82, "resume": 83, "revoke": 84, "risk": 85, "role": 86, "sad": 87, "sadness": 88, "salt": 89, "same": 90, "save": 91, "scare": 92, "score": 93, "search": 94, "secure": 95, "series": 96, "share": 97, "shell": 98, "sign": 99, "soccer": 100, "sort": 101, "spell": 102, "sphere": 103, "split": 104, "start": 105, "state": 106, "stop": 107, "store": 108, "stuff": 109, "sync": 110, "thread": 111, "today": 112, "token": 113, "train": 114, "trust": 115, "unload": 116, "unmount": 117, "unusual": 118, "update": 119, "user": 120, "vapor": 121, "verify": 122, "voice": 123, "volcano": 124, "west": 125, "wolf": 126, "write": 127}, "weights": {"shared.0.weight": [[0.5839237570762634, 0.3360997438430786, 0.2739512622356415, 0.305985689163208, -0.05634922906756401, 0.18931740522384644, 0.1516854465007782, 0.30693715810775757, -0.05495410040020943, -0.6785053610801697, 0.1684158742427826, -0.3461209833621979, 0.5678232312202454, 0.3842981457710266, -0.019258953630924225, 0.5308996438980103, 0.18681101500988007, -0.01561463251709938, -0.03574671223759651, -0.1391882300376892, 0.25197410583496094, 0.4008035659790039, -0.10175979137420654], [-0.15486301481723785, 0.1811731606721878, 0.042004555463790894, 0.10488452762365341, 0.0003871322551276535, 0.19378167390823364, 0.0468711331486702, 0.1949191391468048, 0.047628600150346756, -0.36761903762817383, 0.40401893854141235, -0.004168285056948662, -0.061584535986185074, 0.28563299775123596, -0.05702907219529152, 0.13273239135742188, 0.10758700966835022, -0.10807846486568451, 0.15998372435569763, -0.08486998826265335, 0.39897826313972473, 0.4345698058605194, 0.20888710021972656], [0.27542644739151, 0.054318830370903015, 0.2260841429233551, 0.21518641710281372, 0.001956526655703783, -0.06589865684509277, 0.052107635885477066, 0.1444484442472458, 0.0738709345459938, 0.10895605385303497, 0.08079276978969574, -0.12587937712669373, -0.1306459605693817, -0.1320706158876419, 0.03828709200024605, 0.39549317955970764, 0.14160022139549255, 0.2548578381538391, -0.04580226168036461, 0.3084886074066162, 0.34831827878952026, 0.24255821108818054, 0.2367650717496872], [0.19850987195968628, -0.2059493213891983, 0.1735619753599167, 0.6500414609909058, -0.05408170074224472, -0.15545853972434998, 0.08571631461381912, 0.2138671725988388, 0.49530577659606934, 0.16877710819244385, -0.3153272271156311, 0.06462571769952774, -0.022367360070347786, 0.2776781916618347, -0.09221187978982925, 0.5106936693191528, 0.26293832063674927, -0.008609923534095287, 0.26706212759017944, 0.0889134332537651, -0.13758832216262817, -0.30550095438957214, -0.0638485848903656], [-0.05979417264461517, 0.14341111481189728, -0.11132685840129852, -0.3785369098186493, 0.4170199930667877, 0.15906934440135956, -0.012447921559214592, 0.1546906977891922, -0.0008708947570994496, -0.31236886978149414, 0.14055192470550537, 0.08162051439285278, 0.3444874882698059, 0.4309097230434418, 0.35583993792533875, 0.02163928560912609, 0.3074341118335724, 0.14852337539196014, -0.07468897104263306, -0.09819398820400238, 0.09439287334680557, 0.26025334000587463, -0.04990443214774132], [-0.1742025464773178, 0.06060478091239929, -0.01531854085624218, -0.5161511898040771, 0.18453171849250793, 0.13186384737491608, 0.20295754075050354, -0.026902657002210617, 0.22469760477542877, 0.7991551160812378, 0.11807957291603088, 0.25042667984962463, 0.15599580109119415, -0.21130895614624023, 0.2271077185869217, -0.5261825919151306, 0.049591898918151855, 0.053017035126686096, 0.247332364320755, 0.3368021547794342, -0.07858950644731522, 0.02210708148777485, 0.3071800172328949], [0.3617655634880066, 0.2588569223880768, 0.15155567228794098, 0.09575638920068741, 0.09500342607498169, -0.206045001745224, 0.34958499670028687, 0.1446738988161087, 0.538711667060852, 0.7544638514518738, -0.1718442291021347, 0.31552717089653015, -0.0924861803650856, 0.14668326079845428, 0.008940842933952808, -0.3571963906288147, 0.1589934229850769, -0.011812876909971237, 0.061159826815128326, 0.401130735874176, 0.09007750451564789, -0.2254767268896103, 0.034955333918333054], [-0.48305293917655945, -0.06273666769266129, -0.13229909539222717, 0.19334684312343597, 0.044205427169799805, 0.19237977266311646, -0.12867844104766846, 0.058791372925043106, -0.0982726439833641, 0.10089237242937088, 0.7803134322166443, 0.11909301578998566, -0.4715001881122589, 0.0897042453289032, 0.16686245799064636, 0.1819087117910385, 0.07719516009092331, -0.04467194899916649, 0.21941682696342468, 0.3720226585865021, 0.18093934655189514, 0.30677101016044617, 0.06242677941918373], [-0.17675930261611938, -0.18343320488929749, -0.2215442657470703, 0.11687351763248444, -0.014600662514567375, -0.1809634119272232, -0.10260520130395889, -0.263007253408432, 0.24888348579406738, 0.300922691822052, -0.468845009803772, -0.16967284679412842, -0.25600096583366394, -0.3439071476459503, -0.11264892667531967, -0.09044544398784637, -0.07425067573785782, 0.09682966023683548, -0.2223898321390152, 0.026183893904089928, -0.38962212204933167, -0.33330976963043213, 0.14814606308937073], [0.001562174060381949, 0.009224221110343933, -0.20665861666202545, 0.33525532484054565, 0.13499321043491364, 0.09599059820175171, -0.14254862070083618, -0.18159198760986328, 0.41390755772590637, 0.09092928469181061, 0.5982089638710022, 0.1433791071176529, -0.4998498558998108, -0.16979669034481049, 0.13217750191688538, 0.20824941992759705, 0.14031602442264557, 0.1285400539636612, 0.2200632095336914, 0.3332294821739197, 0.0648743137717247, 0.10767598450183868, 0.2738398313522339], [0.3914905786514282, 0.19397754967212677, 0.17153194546699524, -0.2251005321741104, 0.2691009044647217, 0.2452426552772522, 0.3728221654891968, 0.2354896515607834, -0.016870373860001564, -0.42827245593070984, -0.5460959076881409, -0.1889611780643463, 0.6717668771743774, 0.3933965861797333, -0.11097370088100433, 0.3402635455131531, 0.16055993735790253, -0.08414865285158157, 0.06394186615943909, -0.01717676967382431, 0.3945477604866028, 0.2570282518863678, 0.04806116968393326], [0.4712770879268646, -0.026353618130087852, 0.2076541781425476, 0.23084689676761627, 0.12486377358436584, -0.09426841884851456, -0.12622098624706268, 0.03446602076292038, 0.33089256286621094, 0.05168924853205681, 0.08994176238775253, 0.17084428668022156, 0.2145552933216095, -0.16352005302906036, -0.1850743442773819, 0.3835704028606415, -0.08008115738630295, 0.07060453295707703, 0.06256862729787827, 0.20467673242092133, 0.09607888013124466, -0.14882712066173553, 0.09359168261289597], [-0.15477454662322998, -0.11737856268882751, -0.30229008197784424, 0.2294187694787979, -0.2986502945423126, 0.02155667543411255, -0.2907307744026184, 0.13501475751399994, -0.21167322993278503, -0.2590167820453644, 0.003728708019480109, -0.07032575458288193, -0.45834359526634216, 0.21338613331317902, 0.07062419503927231, -0.0006104633794166148, -0.07037291675806046, -0.27099958062171936, -0.2691088020801544, -0.29733720421791077, 0.09278968721628189, 0.10901811718940735, 0.05914308875799179], [-0.32950907945632935, -0.20513290166854858, -0.1525597870349884, 0.2125396430492401, -0.37390047311782837, -0.3081047832965851, -0.1033165454864502, -0.24708884954452515, 0.1477680206298828, 0.033534713089466095, 0.0800509974360466, -0.1954704225063324, -0.2892657220363617, -0.13917361199855804, -0.0177895687520504, -0.2093825787305832, 0.006791369523853064, 0.07538621127605438, 0.03346218168735504, -0.2623973786830902, -0.21698139607906342, -0.29613423347473145, 0.016635391861200333], [0.19569599628448486, 0.2634555399417877, -0.08639535307884216, -0.43318814039230347, 0.5531781315803528, -0.400930792093277, 0.2800280451774597, 0.4434066712856293, 0.22267116606235504, 0.3350354731082916, -0.39436113834381104, 0.2570350766181946, 0.4496202766895294, 0.3989367187023163, 0.21327854692935944, -0.25524625182151794, -0.0601385235786438, 0.30347296595573425, 0.07303036004304886, 0.23583634197711945, -0.3656885027885437, -0.06733081489801407, 0.16118143498897552], [0.21733465790748596, 0.13795070350170135, 0.24117673933506012, 0.3010711669921875, 0.14329040050506592, 0.23243705928325653, -0.12392783164978027, 0.11649220436811447, -0.05623606592416763, -0.06637043505907059, 0.3445957899093628, -0.0860694944858551, 0.4458574056625366, 0.042300235480070114, -0.053007133305072784, 0.47637513279914856, 0.18806256353855133, -0.08798842877149582, 0.019921718165278435, -0.10398691147565842, 0.3742910623550415, 0.23277325928211212, 0.019765431061387062], [-0.03663427010178566, 0.23671139776706696, -0.1312013864517212, -0.16251249611377716, 0.47226235270500183, -0.41138359904289246, 0.12502260506153107, -0.06253787875175476, 0.14673389494419098, 0.7922508120536804, -0.16552704572677612, 0.3562527298927307, -0.06960418075323105, -0.22428014874458313, 0.2475280463695526, -0.35801300406455994, -0.06701041013002396, 0.22276145219802856, 0.41875624656677246, 0.4692825675010681, -0.274748295545578, -0.3796628415584564, 0.41019442677497864], [-0.14017437398433685, -0.31674864888191223, -0.11984117329120636, 0.3866529166698456, 0.0926281288266182, -0.20354503393173218, -0.40551385283470154, -0.29530978202819824, 0.2986527383327484, 0.04613674059510231, 0.0908534973859787, 0.02802201360464096, -0.530793309211731, -0.25312328338623047, -0.2092750519514084, 0.05420810356736183, -0.034890200942754745, -0.029263222590088844, -0.16229067742824554, 0.02030358463525772, 0.062000446021556854, -0.30881378054618835, -0.0032887100242078304], [-0.5390118956565857, 0.10646972805261612, -0.10890142619609833, -0.24096666276454926, 0.22074003517627716, 0.04803215712308884, 0.31567591428756714, 0.0977187529206276, -0.22403937578201294, 0.6210510730743408, 0.6890777945518494, 0.36184626817703247, -0.5039969086647034, 0.11628158390522003, 0.47034987807273865, -0.17571119964122772, 0.01582792028784752, 0.020238082855939865, 0.32391005754470825, 0.374147891998291, -0.17765292525291443, 0.2576364278793335, 0.24161852896213531], [-0.20945318043231964, -0.09659558534622192, -0.2573896646499634, 0.05066003277897835, -0.09721878170967102, 0.025846702978014946, -0.09903153777122498, -0.033526066690683365, 0.05852614343166351, 0.16329556703567505, 0.1049455776810646, 0.2270689308643341, -0.6197732090950012, -0.11707502603530884, -0.281529039144516, -0.1224520355463028, -0.23799684643745422, -0.019786978140473366, -0.23174551129341125, 0.17641949653625488, -0.017422601580619812, -0.2715696096420288, -0.17564018070697784], [0.160788893699646, 0.033305589109659195, -0.32187217473983765, 0.4077645540237427, 0.002658897079527378, -0.40670931339263916, -0.38411909341812134, -0.17025218904018402, 0.3268822431564331, -0.07026904076337814, -0.5246161818504333, -0.2286457121372223, -0.154913529753685, -0.3685004413127899, -0.3281460106372833, -0.11135416477918625, -0.0026415439788252115, -0.16936668753623962, -0.06069926917552948, -0.07546493411064148, 0.09573140740394592, -0.2982848584651947, -0.2060772180557251], [0.37281563878059387, 0.1458590179681778, 0.28958091139793396, 0.3128221035003662, 0.04459080845117569, 0.05097206309437752, 0.18383584916591644, 0.12228246033191681, 0.27302631735801697, 0.05165271833539009, 0.2900397777557373, 0.1428905576467514, 0.11202798038721085, -0.021505719050765038, -0.15655122697353363, 0.27348318696022034, 0.14885908365249634, -0.08559799194335938, 0.005140423309057951, 0.13462980091571808, 0.4116617739200592, 0.03911415487527847, 0.00200088694691658], [0.1274920105934143, -0.33024170994758606, -0.022566311061382294, -0.04784397408366203, -0.04354497045278549, -0.4624648690223694, 0.02930273674428463, 0.07979143410921097, 0.21814601123332977, 0.14335466921329498, -0.5263603329658508, -0.0802512913942337, -0.06205659732222557, -0.22317765653133392, -0.3614673912525177, -0.23644578456878662, -0.16314519941806793, -0.05379335582256317, -0.1003299131989479, 0.10945763438940048, -0.2203204184770584, -0.4366665780544281, 0.1307685673236847], [0.670518159866333, 0.172862246632576, 0.23615755140781403, -0.003953206352889538, 0.1918182671070099, 0.3519958555698395, 0.33906444907188416, 0.35441717505455017, 0.11938999593257904, -0.09998985379934311, -0.5366098284721375, -0.1472552865743637, 0.38413479924201965, 0.40475520491600037, -0.1906728297472, 0.11104147881269455, 0.1770494133234024, -0.05112041160464287, 0.2597251534461975, -0.2783469557762146, 0.3105960786342621, -0.09547629952430725, 0.1482020914554596], [-0.34475189447402954, -0.21997188031673431, -0.2815939486026764, 0.3679153025150299, -0.4487643241882324, 0.16692706942558289, -0.25339072942733765, -0.07073463499546051, -0.3362346887588501, -0.25890016555786133, 0.2773338556289673, -0.12563136219978333, -0.42698973417282104, -0.13651716709136963, 0.27406543493270874, 0.012889868579804897, 0.04126500338315964, 0.11272884160280228, -0.20382168889045715, -0.26760128140449524, 0.13358452916145325, 0.03714971989393234, -0.2050311416387558], [0.5589885711669922, 0.22148831188678741, 0.4549384117126465, -0.25134629011154175, 0.5515483021736145, 0.11928416788578033, 0.4439520835876465, 0.19276539981365204, 0.19165313243865967, 0.0428348109126091, -0.7121171355247498, -0.03988894075155258, 0.6480349898338318, 0.04406677931547165, -0.002412190893664956, -0.037792399525642395, 0.05532773956656456, 0.11918868124485016, 0.11739542335271835, 0.05086302012205124, -0.08870384097099304, 0.06501694023609161, 0.05224789306521416], [0.02085830084979534, -0.06774596124887466, -0.00016158769722096622, 0.35118696093559265, -0.2102019041776657, -0.39337417483329773, 0.038939859718084335, -0.19996894896030426, 0.4028714895248413, 0.23792420327663422, -0.5264697074890137, -0.2014787197113037, -0.14492462575435638, 0.006614413112401962, -0.31338346004486084, -0.11786815524101257, -0.20167095959186554, -0.11313678324222565, -0.15522491931915283, -0.20273858308792114, -0.23803214728832245, -0.45465075969696045, -0.10164801776409149], [-0.25783756375312805, -0.0025302041321992874, 0.03022773563861847, 0.5212020874023438, -0.003902879310771823, -0.0737515315413475, -0.09221959114074707, 0.12393402308225632, 0.1977112591266632, 0.5957827568054199, 0.2940988838672638, 0.3491152822971344, -0.38565242290496826, -0.23581455647945404, 0.10097049176692963, 0.20531053841114044, -0.08598066121339798, -0.08974381536245346, 0.1349545568227768, 0.28270792961120605, 0.024793416261672974, 0.2039307802915573, 0.12284009903669357], [0.4509272873401642, -0.13717763125896454, -0.002923671156167984, 0.3212025463581085, 0.15311791002750397, -0.23877224326133728, 0.04903659597039223, 0.13654735684394836, 0.6717914342880249, 0.8270102143287659, -0.08630052953958511, 0.23433686792850494, -0.09902675449848175, 0.02335301600396633, -0.18969430029392242, -0.21422509849071503, 0.06634833663702011, 0.06465902924537659, 0.017686206847429276, 0.5224084258079529, -0.22254031896591187, -0.4429265260696411, 0.23813700675964355], [0.5275417566299438, 0.01304545160382986, 0.42139872908592224, -0.26476702094078064, -0.007550555747002363, 0.4329199492931366, 0.1497088372707367, -0.0718802735209465, 0.08033096045255661, 0.05053847283124924, 0.012191550806164742, -0.2868401110172272, 0.20876730978488922, 0.048226624727249146, -0.2023514062166214, -0.21408824622631073, 0.24532654881477356, 0.05099598318338394, 0.056267544627189636, 0.08889654278755188, 0.29046428203582764, 0.39193207025527954, 0.08538501709699631], [0.2303340584039688, 0.187106192111969, 0.09150636196136475, 0.13591556251049042, 0.10941822826862335, -0.0530073381960392, 0.2465311735868454, -0.12573593854904175, 0.34549379348754883, 0.18997564911842346, 0.14527426660060883, 0.006452323868870735, 0.023665154352784157, -0.15522857010364532, -0.0479750856757164, -0.09376278519630432, 0.0035411398857831955, 0.1942485123872757, 0.20993660390377045, 0.368439644575119, -0.005180784501135349, 0.10674097388982773, 0.10100240260362625], [0.0021000769920647144, -0.00515102781355381, -0.04247600957751274, 0.011060623452067375, -0.2572294771671295, -0.09496570378541946, 0.09693660587072372, -0.007559008430689573, 0.06475714594125748, -0.2386140525341034, -0.5923545956611633, -0.3262537717819214, 0.015606622211635113, 0.010945052839815617, -0.058520395308732986, -0.18062765896320343, -0.02147269807755947, 0.0925469845533371, 0.004956160206347704, -0.45529329776763916, -0.23604707419872284, 0.02392159216105938, -0.043585602194070816], [0.2145995795726776, 0.36016616225242615, 0.06969010084867477, -0.17363961040973663, 0.030831048265099525, 0.3696165680885315, 0.28799697756767273, 0.3406643271446228, -0.2601407468318939, -0.31583625078201294, -0.03099529817700386, -0.012566220946609974, 0.4632308781147003, 0.015500594861805439, -0.007377857342362404, 0.05258346349000931, 0.2385954111814499, 0.05649508163332939, -0.17461468279361725, 0.07843390107154846, 0.4263662099838257, 0.21541133522987366, 0.210897296667099], [-0.07688320428133011, -0.3204033076763153, 0.396941602230072, 0.23146182298660278, 0.2941439747810364, 0.20512881875038147, -0.02878648042678833, -0.05724724754691124, -0.050734903663396835, -0.37828755378723145, 0.6974182724952698, 0.11157024651765823, 0.09290798753499985, 0.3551562428474426, -0.16173581779003143, 0.35597342252731323, 0.2808009386062622, -0.09029456973075867, 0.04898269101977348, 0.021731050685048103, 0.03255920112133026, 0.3863946199417114, 0.18026220798492432], [-0.009712770581245422, -0.24163582921028137, -0.24621151387691498, 0.3722071945667267, -0.2322595715522766, -0.23438680171966553, -0.3856980800628662, -0.0010465622181072831, 0.4632744789123535, 0.4929406940937042, -0.10014349967241287, -0.012378565967082977, -0.5961424708366394, -0.34604471921920776, -0.4250589907169342, -0.21581630408763885, -0.19062922894954681, -0.02536020241677761, 0.10213682055473328, -0.03151370957493782, -0.18300530314445496, -0.17475509643554688, -0.2303338646888733], [-0.2358158826828003, 0.2752983272075653, 0.06052602082490921, -0.46925726532936096, 0.22847463190555573, 0.361622154712677, 0.14598073065280914, 0.16915719211101532, -0.38875114917755127, -0.09828522801399231, 0.5046656131744385, 0.2119349241256714, 0.16473698616027832, 0.012267956510186195, 0.5321187973022461, 0.04078445956110954, -0.010558219626545906, 0.01838848367333412, -0.08232393115758896, 0.3238183259963989, 0.2570849657058716, 0.26904216408729553, 0.14239723980426788], [0.34034112095832825, 0.12976369261741638, -0.02133324183523655, 0.5857338905334473, 0.13620908558368683, -0.15100672841072083, -0.19703684747219086, -0.05026585981249809, 0.26425185799598694, 0.3676026463508606, -0.1639097034931183, 0.13203752040863037, 0.16987952589988708, 0.11619817465543747, -0.2949741780757904, 0.33911722898483276, 0.2779969274997711, 0.1083594337105751, 0.04595087468624115, 0.2782015800476074, -0.16511736810207367, -0.053086817264556885, -0.01988384500145912], [0.6137823462486267, 0.09347158670425415, 0.2288159430027008, 0.3566998839378357, -0.13090482354164124, 0.3602152466773987, 0.10354634374380112, 0.3238052725791931, 0.1561909168958664, -0.37280139327049255, -0.08628793805837631, -0.09276573359966278, 0.4071601331233978, 0.37946054339408875, 0.02876461297273636, 0.23247280716896057, 0.06332574039697647, 0.19514071941375732, -0.11846476048231125, 0.003771259682253003, 0.4492921829223633, 0.1385793387889862, -0.04860111325979233], [-0.06229135021567345, -0.02210139110684395, -0.1253139227628708, 0.11075989902019501, -0.35931187868118286, 0.49915367364883423, 0.11088511347770691, 0.29290422797203064, -0.21595726907253265, -0.4266403913497925, 0.6346837878227234, 0.23081810772418976, 0.20212848484516144, 0.21841277182102203, 0.0982666090130806, 0.34174808859825134, 0.2518327832221985, 0.06954064965248108, -0.154501274228096, -0.2631993293762207, 0.4211849272251129, 0.518962562084198, 0.17051751911640167], [-0.29004043340682983, -0.04705206677317619, 0.09627897292375565, 0.4082103371620178, -0.29587575793266296, 0.5743851065635681, 0.18689735233783722, 0.038541220128536224, -0.20456461608409882, -0.08527667820453644, 0.5421521663665771, 0.17747549712657928, -0.10884340852499008, 0.2882392704486847, 0.2628939151763916, 0.09615406394004822, 0.06193011254072189, 0.04764726385474205, -0.06758184731006622, -0.0882449597120285, 0.41412559151649475, 0.5045228004455566, 0.20395801961421967], [-0.00535488361492753, -0.18816953897476196, 0.002681047422811389, 0.0447806753218174, 0.13809438049793243, -0.06225894019007683, -0.31102490425109863, 0.017462722957134247, -0.12844067811965942, 0.029272522777318954, 0.020889755338430405, -0.2837761342525482, -0.14604038000106812, -0.20461739599704742, -0.20217934250831604, -0.08907041698694229, -0.020757772028446198, 0.010567509569227695, -0.2485695630311966, 0.02107122354209423, -0.12954434752464294, 0.0026760899927467108, -0.034743692725896835], [0.23985986411571503, -0.1764046996831894, -0.09508546441793442, 0.4305938482284546, -0.044566404074430466, -0.2875593304634094, -0.39252787828445435, -0.3880229592323303, 0.01480131596326828, -0.15885069966316223, 0.026939768344163895, -0.36162233352661133, -0.23682992160320282, -0.26186856627464294, -0.19466523826122284, 0.09193527698516846, -0.010840114206075668, -0.2000989019870758, 0.14613571763038635, -0.28822895884513855, -0.027315445244312286, -0.028702402487397194, -0.19928106665611267], [-0.11070352047681808, -0.062351398169994354, -0.14719422161579132, -0.05089158937335014, 0.19383487105369568, 0.42543816566467285, 0.27257564663887024, -0.1351632922887802, -0.04033615067601204, 0.20828424394130707, 0.3750675320625305, 0.20096151530742645, 0.0573512427508831, 0.23076891899108887, 0.09484944492578506, 0.26139673590660095, 0.11319298297166824, -0.014794457703828812, 0.26286575198173523, -0.08621220290660858, -0.11318554729223251, 0.19360662996768951, 0.2150292694568634], [-0.2810896933078766, -0.00621534651145339, -0.06047160178422928, 0.17584796249866486, -0.23879390954971313, 0.5572797656059265, 0.07242472469806671, 0.27277183532714844, -0.20329590141773224, 0.11487464606761932, 0.7626945376396179, 0.04486597701907158, -0.28428924083709717, -0.019832922145724297, 0.11132092028856277, 0.45427405834198, -0.09618659317493439, 0.007589611690491438, 0.20612217485904694, 0.01992652378976345, 0.1886771321296692, 0.367850661277771, 0.07534956187009811], [-0.2657943367958069, 0.2428409308195114, -0.20200030505657196, 0.2203519642353058, -0.09370089322328568, 0.6237881183624268, 0.10661082714796066, 0.22677160799503326, -0.19227567315101624, 0.06554249674081802, 0.6218456029891968, 0.20417520403862, -0.27252453565597534, 0.017936188727617264, 0.0935187116265297, 0.026842622086405754, -0.09223838895559311, 0.14047236740589142, -0.05385340005159378, 0.11589115113019943, 0.07232796400785446, 0.4821147620677948, 0.3030064105987549], [0.5210438966751099, -0.10078893601894379, 0.3585406541824341, 0.2020510733127594, 0.1741272509098053, -0.17356988787651062, -0.08196736127138138, 0.03647470101714134, 0.37864950299263, 0.42708277702331543, 0.026013266295194626, -0.18942707777023315, 0.29660820960998535, 0.2058316022157669, -0.30864474177360535, 0.31485500931739807, -0.004647077526897192, 0.16743957996368408, 0.09966525435447693, 0.17225764691829681, -0.03805098310112953, -0.3380443751811981, 0.2766195833683014], [-0.384944349527359, 0.26676011085510254, 0.1506081521511078, -0.45792216062545776, -0.035211965441703796, 0.25520339608192444, 0.17544415593147278, 0.06771980971097946, -0.38398054242134094, 0.18425725400447845, 0.4250204861164093, 0.4064106047153473, 0.03008957952260971, 0.0007761179003864527, 0.3604355752468109, -0.047532957047224045, 0.28679558634757996, -0.12216077744960785, 0.13835278153419495, 0.267390638589859, 0.11552417278289795, 0.40678441524505615, 0.1422111690044403], [0.22428418695926666, 0.10386066883802414, 0.40924137830734253, 0.05267418175935745, 0.3479814827442169, -0.05636170506477356, 0.1825868785381317, -0.1167570948600769, 0.5077487826347351, 0.7462257146835327, -0.39648985862731934, 0.04633292928338051, 0.11594799906015396, 0.21307627856731415, -0.03952113166451454, -0.23785124719142914, 0.19572396576404572, 0.37600383162498474, 0.03617190569639206, 0.4986796975135803, -0.12145523726940155, -0.4658666253089905, 0.19006843864917755], [0.07935252785682678, -0.23078706860542297, -0.12313428521156311, 0.43840456008911133, 0.13383245468139648, -0.48356419801712036, -0.32988354563713074, -0.3213125765323639, 0.3787330389022827, -0.008738922886550426, -0.32450026273727417, -0.10741118341684341, -0.14148148894309998, -0.1992843598127365, -0.4040452539920807, 0.18911060690879822, -0.0004454685258679092, 0.12864215672016144, -0.11185838282108307, -0.22722657024860382, -0.04241881147027016, -0.21175669133663177, -0.17957371473312378], [-0.27958381175994873, 0.1590418666601181, 0.10239370167255402, -0.4918908476829529, 0.18053187429904938, -0.08748003840446472, 0.46875032782554626, 0.2732734978199005, 0.11154766380786896, 0.26873111724853516, -0.37866562604904175, 0.46528106927871704, 0.340613454580307, 0.2942834198474884, 0.41996464133262634, -0.11382883787155151, 0.18276439607143402, 0.11191376298666, 0.06965798139572144, 0.31282612681388855, -0.3493744134902954, -0.15071448683738708, 0.07820683717727661], [0.13624811172485352, -0.09494466334581375, -0.11284752190113068, -0.18508078157901764, 0.05709431320428848, 0.13153941929340363, 0.06259513646364212, 0.16197910904884338, 0.059670716524124146, -0.2974466383457184, -0.45331501960754395, -0.37507525086402893, 0.12385905534029007, -0.15551961958408356, -0.299060195684433, -0.16367141902446747, -0.08161462098360062, -0.10177823901176453, -0.08633975684642792, -0.5758501291275024, -0.22696588933467865, 0.02863195165991783, -0.21937492489814758], [-0.4294019341468811, -0.19658872485160828, 0.12420251965522766, 0.452103853225708, -0.03638843819499016, 0.05492342635989189, -0.20737449824810028, 0.27601754665374756, 0.2615538239479065, 0.11718317121267319, 0.912399172782898, 0.35613977909088135, -0.5955305695533752, 0.15782269835472107, 0.13206347823143005, 0.32032904028892517, -0.056553855538368225, 0.1234719306230545, 0.04019886627793312, 0.048479869961738586, 0.09567183256149292, 0.17503146827220917, 0.01866734027862549], [0.4218056797981262, -0.10039898008108139, 0.025623181834816933, 0.39367765188217163, 0.06594853103160858, 0.13756424188613892, -0.03403520584106445, -0.11976450681686401, 0.4657866060733795, 0.4129926860332489, -0.09054882824420929, 0.10077491402626038, -0.012277733534574509, 0.20114929974079132, -0.055651403963565826, 0.09215500950813293, -0.07329580187797546, 0.19113470613956451, 0.2892807722091675, -0.12239418923854828, 0.3043682277202606, -0.14638957381248474, 0.2730700373649597], [0.013884149491786957, 0.01791360229253769, 0.07506538182497025, 0.0485813170671463, -0.2997305989265442, -0.12964439392089844, -0.025968927890062332, -0.14776013791561127, 0.021748829632997513, 0.06509437412023544, -0.2482088804244995, 0.005164941772818565, -0.2410879284143448, -0.3708939552307129, -0.2525181174278259, -0.1540408432483673, -0.03315060958266258, -0.23288494348526, -0.04288570582866669, -0.023701349273324013, -0.0799226388335228, 0.056815966963768005, -0.25241097807884216], [-0.169596329331398, 0.056108612567186356, -0.2547805607318878, -0.32735252380371094, 0.11932099610567093, -0.17547035217285156, 0.34597674012184143, 0.23724068701267242, 0.17172792553901672, 0.9162786602973938, 0.04648762196302414, 0.5690630078315735, -0.43259286880493164, 0.20274633169174194, 0.41411158442497253, -0.3314549922943115, 0.24258410930633545, 0.2159067839384079, 0.31757792830467224, 0.2857273817062378, -0.18248118460178375, -0.07782021164894104, 0.14999370276927948], [0.6073514223098755, 0.17357251048088074, 0.259176105260849, 0.3083277642726898, 0.0029402868822216988, -0.04117265343666077, 0.026869364082813263, 0.005680844187736511, 0.25803491473197937, 0.25368475914001465, -0.18431627750396729, -0.17450283467769623, 0.2666817307472229, 0.11923135071992874, 0.04766279086470604, 0.18051818013191223, 0.0772947445511818, 0.1000651866197586, 0.23679928481578827, 0.01479110773652792, 0.2194501757621765, -0.33562198281288147, 0.048857640475034714], [0.4691976010799408, 0.334730327129364, 0.18345476686954498, -0.15231361985206604, 0.15401509404182434, 0.3225151002407074, 0.1872720569372177, 0.16260065138339996, 0.19703659415245056, -0.4765504002571106, -0.3451795279979706, -0.218389093875885, 0.5338272452354431, 0.4670470356941223, 0.29296597838401794, -0.0531751848757267, -0.02945413999259472, 0.08345148712396622, 0.06741414964199066, -0.11378002911806107, 0.44518083333969116, 0.40475383400917053, -0.05556321516633034], [-0.11727369576692581, -0.21709957718849182, -0.06417125463485718, 0.4335993230342865, 0.0002135992981493473, -0.11814047396183014, -0.17549942433834076, -0.08681995421648026, 0.38703930377960205, 0.3627171814441681, 0.03260133042931557, -0.1408354640007019, -0.2528010904788971, -0.31468886137008667, -0.12880133092403412, 0.020163478329777718, -0.20447780191898346, 0.09711278975009918, -0.1873847097158432, -0.06941446661949158, -0.3081836998462677, -0.4774743914604187, -0.24801228940486908], [0.16174925863742828, 0.3795779049396515, 0.12164999544620514, 0.3228814899921417, 0.13624610006809235, -0.1067616418004036, -0.027799619361758232, 0.15100638568401337, 0.077926404774189, -0.0275488942861557, -0.2645166218280792, -0.05100683495402336, 0.458359032869339, 0.21383246779441833, 0.1596580296754837, 0.3203895688056946, 0.04098483920097351, 0.030343005433678627, 0.27327343821525574, -0.030813002958893776, 0.15631912648677826, 0.21252037584781647, 0.06422099471092224], [0.28047651052474976, 0.03665771707892418, 0.2501293420791626, -0.003202012972906232, 0.08015047758817673, 0.0345110148191452, 0.0628432109951973, -0.03649136424064636, 0.41129323840141296, 0.7481268644332886, -0.2945343255996704, -0.01857028156518936, -0.3345973789691925, 0.03916969895362854, -0.12167598307132721, -0.2185644805431366, 0.2861897647380829, 0.3483443856239319, 0.022148288786411285, 0.5010225772857666, 0.1980481594800949, -0.04942157119512558, 0.32046520709991455], [0.05281071737408638, -0.22858396172523499, -0.18737436830997467, -0.25772321224212646, -0.171604186296463, 0.06358412653207779, 0.0007896247552707791, -0.05595758184790611, 0.16268473863601685, 0.14644713699817657, -0.1440971940755844, -0.2582322657108307, -0.140036940574646, 0.004373522009700537, -0.33332446217536926, -0.07713057100772858, -0.18825937807559967, -0.09436637908220291, -0.14337816834449768, -0.25418227910995483, -0.21361126005649567, -0.06481537967920303, -0.1281118392944336], [-0.019198253750801086, -0.22661012411117554, -0.10423009842634201, 0.9454065561294556, 0.023064197972416878, -0.005077415145933628, -0.3950774371623993, -0.07362809777259827, 0.4556051194667816, 0.13122384250164032, 0.6888139247894287, 0.2613828778266907, -0.2795899212360382, -0.15702661871910095, -0.1435876488685608, 0.400421142578125, 0.28535929322242737, 0.26283591985702515, 0.19928064942359924, 0.30659031867980957, 0.03258155286312103, -0.011311396956443787, 0.19155943393707275], [0.22979217767715454, 0.30497464537620544, 0.3718353807926178, -0.48538658022880554, -0.1830669641494751, 0.3744114935398102, 0.41655340790748596, 0.09801045805215836, -0.4348825216293335, -0.7174707651138306, 0.35399696230888367, -0.1650523692369461, 0.5959778428077698, 0.24821540713310242, 0.1341119110584259, 0.2777082026004791, 0.13107076287269592, 0.1336420327425003, -0.17395667731761932, -0.2832568287849426, 0.5252506136894226, 0.49570345878601074, -0.004707619082182646], [-0.31655558943748474, 0.12415964156389236, 0.07340972125530243, 0.49600523710250854, -0.1547347605228424, 0.48032286763191223, -0.13075819611549377, 0.19260461628437042, -0.2590339481830597, -0.4821261763572693, 0.6026583313941956, -0.04924631863832474, 0.20387203991413116, 0.3730924129486084, 0.2858235538005829, 0.45260077714920044, -0.061356931924819946, -0.026206206530332565, -0.045970186591148376, -0.3419627547264099, 0.31514158844947815, 0.3532353639602661, 0.2620147168636322]], "shared.0.bias": [-0.10986357182264328, 0.06641239672899246, 0.1192672923207283, 0.2654034495353699, 0.08034926652908325, 0.04098421335220337, 0.004155109170824289, 0.17936305701732635, 0.10756815969944, 0.008868042379617691, 0.21399864554405212, 0.21617159247398376, -0.20779864490032196, 0.051883019506931305, 0.15011607110500336, -0.15724186599254608, 0.31153690814971924, -0.2317235767841339, -0.04570240527391434, -0.09957460314035416, -0.005845701787620783, -0.1495509147644043, -0.03447713330388069, -0.04080256447196007, -0.11867660284042358, -0.06794758141040802, -0.0013484671944752336, 0.16750496625900269, 0.41013532876968384, 0.1931110918521881, 0.14479763805866241, -0.1759040355682373, 0.21672166883945465, 0.07921160012483597, -0.09801386296749115, -0.09501679241657257, 0.09839311242103577, -0.042311862111091614, 0.07662030309438705, -0.04824317246675491, -0.1930934488773346, -0.19270417094230652, 0.08876246958971024, 0.04639309272170067, 0.08275160938501358, -0.03150041028857231, -0.10925880074501038, 0.07266907393932343, -0.16348016262054443, 0.16391077637672424, 0.13440418243408203, 0.2481953203678131, 0.0120473587885499, -0.25658878684043884, 0.14628081023693085, 0.046692147850990295, 0.11579000949859619, -0.15874908864498138, 0.04499360918998718, 0.12653732299804688, 0.12460213154554367, -0.0035112230107188225, 0.1757708191871643, 0.14054805040359497], "shared.2.weight": [[0.2558799088001251, -0.01471297163516283, 0.0510803759098053, 0.26393988728523254, -0.21992027759552002, -0.33471551537513733, 0.15008962154388428, -0.10332377254962921, -0.11918714642524719, 0.11532984673976898, 0.17737390100955963, 0.33969107270240784, -0.031002748757600784, -0.09205126762390137, -0.11371951550245285, 0.2586335241794586, -0.26213157176971436, -0.08374518901109695, -0.518582820892334, 0.028318027034401894, -0.2508383095264435, 0.10264194011688232, -0.07249616086483002, 0.1725456416606903, 0.02926991879940033, 0.1587945520877838, -0.13547466695308685, -0.004906715825200081, 0.35574567317962646, -0.07706558704376221, 0.15004239976406097, -0.015194307081401348, -0.0734158605337143, 0.12023179233074188, -0.25623849034309387, -0.25167322158813477, 0.3304097652435303, 0.22137072682380676, -0.2627900242805481, -0.2570582330226898, 0.031076421961188316, -0.1964544653892517, -0.01939992420375347, -0.1345118284225464, -0.2513808012008667, 0.3325318396091461, -0.5237951278686523, -0.003042020136490464, -0.28152206540107727, -0.17927536368370056, -0.026209257543087006, -0.05551009252667427, 0.14826573431491852, 0.005665071774274111, -0.4102492332458496, 0.2322782278060913, 0.04243174567818642, -0.26075229048728943, 0.279879629611969, -0.027538049966096878, -0.03668513521552086, 0.373334139585495, -0.3106095790863037, 0.037007108330726624], [-0.015022724866867065, -0.007408391684293747, -0.13112252950668335, 0.46587422490119934, -0.07247868925333023, -0.11472859233617783, 0.0039348965510725975, 0.10364869982004166, -0.08079003542661667, -0.05673910677433014, -0.1554843634366989, 0.06731691211462021, 0.10969293117523193, -0.0549142062664032, -0.08992437273263931, 0.03208273649215698, 0.07234769314527512, -0.1307230293750763, -0.06867934763431549, -0.09499344974756241, -0.06036101654171944, 0.01700676791369915, 0.03654497116804123, -0.09667590260505676, 0.032820042222738266, -0.03860805928707123, -0.142517551779747, -0.05292747914791107, 0.46064069867134094, -0.0598265565931797, -0.14879660308361053, 0.07618071138858795, -0.25273171067237854, 0.09818540513515472, -0.14648069441318512, -0.4013550877571106, 0.19035476446151733, -0.19404615461826324, -0.18629682064056396, -0.1636083722114563, -0.14617811143398285, -0.07908164709806442, 0.03418468311429024, -0.1900937408208847, -0.283311665058136, 0.18646852672100067, -0.25955140590667725, 0.35112255811691284, -0.17905063927173615, -0.018890658393502235, -0.05837038904428482, 0.4655730128288269, 0.06630239635705948, 0.0985802710056305, -0.025446278974413872, -0.055230896919965744, -0.16640233993530273, -0.006292764563113451, -0.09071297198534012, -0.08931312710046768, -0.17154476046562195, 0.3996342420578003, -0.41622427105903625, -0.01837131939828396], [0.2354339063167572, 0.19521696865558624, -0.0013281111605465412, -0.2594021260738373, -0.11313729733228683, 0.08159738034009933, 0.08405686169862747, -0.010254363529384136, 0.05884476751089096, -0.023076366633176804, 0.08245990425348282, -0.15433350205421448, -0.11330102384090424, -0.15533535182476044, -0.3468562364578247, 0.1532200425863266, -0.23623764514923096, 0.006099229212850332, -0.049307867884635925, -0.020631220191717148, -0.10399147868156433, -0.0015227403491735458, 0.007982921786606312, 0.1544640213251114, -0.16275663673877716, -0.08013595640659332, -0.04011358693242073, 0.03149908035993576, -0.27601131796836853, 0.22031955420970917, 0.0935467854142189, -0.16495980322360992, 0.15489986538887024, -0.19167470932006836, -0.09970767796039581, 0.09967909008264542, -0.15729354321956635, 0.19432790577411652, 0.49805402755737305, 0.317920982837677, -0.0548519529402256, 0.0009168505785055459, 0.16207048296928406, 0.33457517623901367, 0.29380252957344055, -0.20479172468185425, 0.05017770826816559, -0.28870683908462524, 0.1193278506398201, -0.20836970210075378, -0.0905267745256424, -0.10235804319381714, 0.05182730033993721, -0.1805073618888855, -0.11984985321760178, 0.05359445884823799, 0.18449313938617706, -0.11393328011035919, 0.14487430453300476, 0.1250007003545761, 0.024657435715198517, -0.2610801160335541, 0.42887869477272034, 0.25182148814201355], [-0.12429927289485931, 0.04086128622293472, -0.12301801890134811, 0.08450237661600113, 0.2016041874885559, 0.0915338546037674, -0.006040726788341999, 0.1257428675889969, -0.1988011598587036, -0.11550895869731903, 0.007161722518503666, -0.25853991508483887, -0.06575527042150497, -0.14621034264564514, 0.10812915861606598, -0.11395877599716187, 0.2203054428100586, -0.10705242305994034, 0.09836103022098541, -0.04114044830203056, -0.038453470915555954, -0.20668651163578033, 0.06452527642250061, -0.042142122983932495, 0.03883151337504387, 0.03976510837674141, -0.15597020089626312, -0.11164825409650803, -0.13844603300094604, -0.22397775948047638, 0.0559287965297699, -0.15164068341255188, -0.17178738117218018, 0.06826326251029968, -0.09108306467533112, -0.016461007297039032, -0.052341070026159286, -0.13949955999851227, -0.024510152637958527, -0.0034200202208012342, 0.005933171138167381, -0.03748506307601929, 0.11884355545043945, -0.04678483307361603, 0.06067124381661415, -0.23919802904129028, 0.04032547399401665, -0.05295172706246376, 0.03240825608372688, 0.2132745385169983, -0.0953022912144661, 0.04935406148433685, -0.13226839900016785, 0.01839740015566349, 0.19330373406410217, -0.17153380811214447, -0.09599319100379944, -0.03167179971933365, -0.007745413575321436, -0.1877041906118393, -0.19215771555900574, -0.1903492510318756, -0.15365518629550934, 0.09353935718536377], [-0.0979778915643692, 0.07989808917045593, 0.08071697503328323, 0.15827181935310364, -0.35247671604156494, -0.1700427383184433, 0.24472090601921082, 0.16920477151870728, -0.04732368886470795, 0.07383684813976288, -0.33662500977516174, 0.16786004602909088, 0.06558986008167267, -0.04835899546742439, -0.34201332926750183, 0.16580212116241455, -0.09748859703540802, -0.2062462568283081, -0.007758304942399263, -0.13109058141708374, -0.152825728058815, 0.15609391033649445, -0.0013985356781631708, 0.08105307072401047, -0.049184586852788925, -0.3252757787704468, -0.16113482415676117, 0.26539334654808044, 0.4351669251918793, 0.08014606684446335, 0.09017154574394226, 0.052531883120536804, -0.047770895063877106, -0.1275591254234314, -0.24616698920726776, -0.18013520538806915, 0.19843897223472595, 0.09488650411367416, 0.060700565576553345, 0.08251599967479706, -0.13542206585407257, -0.12884138524532318, -0.08436542004346848, 0.24248303472995758, -0.08530243486166, 0.2933562397956848, -0.20533031225204468, 0.08331654965877533, -0.17495834827423096, -0.34933626651763916, 0.1071944460272789, 0.33088257908821106, 0.10589724034070969, -0.11884108185768127, -0.14195190370082855, 0.19795897603034973, -0.12502144277095795, -0.23432910442352295, -0.15177607536315918, 0.17130199074745178, -0.15077130496501923, 0.33316341042518616, -0.43119537830352783, -0.08262702822685242], [-0.044755686074495316, -0.11832684278488159, -0.1187887042760849, 0.1728411614894867, -0.006228629499673843, -0.013089886866509914, 0.04982674866914749, 0.1766977608203888, -0.07188225537538528, -0.1196780800819397, -0.10804318636655807, -0.043596915900707245, -0.010968380607664585, -0.1746710240840912, -0.13008445501327515, -0.03656380623579025, 0.09053853899240494, -0.05192795395851135, 0.2165047973394394, -0.06071428954601288, 0.02149246074259281, -0.0978781059384346, -0.09558264911174774, -0.2383425235748291, -0.05619552731513977, -0.21427875757217407, -0.13461743295192719, -0.048870999366045, 0.2464343160390854, -0.08400222659111023, -0.1355118304491043, -0.08221965283155441, -0.16880440711975098, -0.026752224192023277, -0.06861314922571182, -0.06551680713891983, 0.12170393764972687, -0.13593819737434387, -0.08857539296150208, 0.12531085312366486, -0.10829572379589081, 0.03589421883225441, -0.006168241612613201, 0.06795395910739899, -0.055836644023656845, -0.08401560038328171, 0.1703188270330429, 0.11287754774093628, -0.13237212598323822, 0.010365772061049938, 0.07367152720689774, 0.19646885991096497, -0.12596681714057922, -0.08009753376245499, 0.06460372358560562, -0.161072239279747, -0.18508055806159973, -0.049026716500520706, -0.09078602492809296, -0.12280561029911041, -0.1317794770002365, 0.1765982061624527, -0.25238925218582153, 0.03909524157643318], [0.2999017834663391, 0.19615696370601654, 0.004420572891831398, -0.006733904127031565, 0.08762368559837341, -0.20198501646518707, -0.21085795760154724, 0.20819902420043945, -0.01070240419358015, 0.039193831384181976, 0.2011481672525406, 0.027625348418951035, -0.08180525153875351, -0.0809689313173294, -0.3879932463169098, 0.046816080808639526, -0.6003201007843018, -0.1510906219482422, -0.04425574094057083, -0.07052005082368851, 0.05847937613725662, 0.14451855421066284, 0.11003813147544861, 0.19521422684192657, -0.021475445479154587, -0.2059124857187271, 0.06581355631351471, 0.003182956948876381, -0.3827342092990875, 0.0633467361330986, 0.11837395280599594, 0.011298063211143017, 0.17284278571605682, 0.2752414047718048, 0.028019746765494347, 0.03997689113020897, -0.10353951156139374, 0.2033873200416565, 0.3488543927669525, 0.4188581109046936, 0.0220281183719635, -0.0007005655206739902, 0.17469945549964905, 0.20931896567344666, 0.2913890779018402, -0.20593054592609406, -0.004605259280651808, -0.24233317375183105, -0.16780363023281097, -0.21239489316940308, -0.01614070124924183, 0.18930980563163757, 0.2288564294576645, -0.02882296033203602, -0.2699238955974579, 0.02008381113409996, 0.24852612614631653, -0.0726662203669548, 0.05150889977812767, 0.0870838463306427, -0.12490414828062057, 0.062287766486406326, 0.1574881672859192, 0.31795594096183777], [-0.307559996843338, 0.01964818686246872, -0.13734887540340424, -0.23853014409542084, -0.09061925858259201, 0.0555923767387867, 0.032269496470689774, 0.2010384500026703, 0.06945934146642685, 0.0628662034869194, -0.20534639060497284, -0.0367131233215332, -0.09345665574073792, -0.1544915735721588, -0.204728901386261, -0.15842680633068085, 0.252025842666626, 0.0759597048163414, 0.13433940708637238, -0.03581193834543228, -0.1457107961177826, 0.051059115678071976, -0.03762909397482872, -0.20859681069850922, -0.06784392148256302, -0.2086334377527237, 0.09059403836727142, 0.09283913671970367, 0.11599849909543991, 0.017646459862589836, -0.07121238857507706, -0.14911039173603058, 0.046257998794317245, -0.24029791355133057, -0.04148729518055916, 0.05620383098721504, -0.19859659671783447, -0.23961585760116577, 0.06606040149927139, 0.20802795886993408, -0.03512151539325714, -0.054615993052721024, -0.06369602680206299, 0.2395896166563034, 0.20234079658985138, -0.2696889340877533, 0.16929496824741364, -0.08060989528894424, 0.050287920981645584, -0.006942324806004763, -0.08918114751577377, 0.18301142752170563, 0.13873213529586792, -0.1311137080192566, 0.13155394792556763, -0.0932106077671051, -0.10027538239955902, -0.14162816107273102, 0.029454508796334267, -0.0007279764977283776, -0.05907013267278671, 0.13478314876556396, -0.2401924729347229, 0.03046841360628605], [-0.25630801916122437, 0.06695427000522614, 0.10092540830373764, -0.10548651963472366, -0.3295539915561676, 0.11519111692905426, 0.07393787801265717, 0.2262950986623764, 0.05806322768330574, 0.1514875441789627, -0.29771295189857483, 0.15561778843402863, 0.0857238695025444, 0.06187435984611511, -0.35718491673469543, 0.14548665285110474, -0.03193414583802223, -0.017118051648139954, 0.18973426520824432, -0.09101098775863647, -0.02354571223258972, 0.19944718480110168, -0.08071952313184738, -0.23913252353668213, -0.005100894253700972, -0.24178755283355713, 0.035751909017562866, 0.2606130540370941, 0.2528643012046814, 0.17845459282398224, 0.13622169196605682, -0.00015498910215683281, 0.036209285259246826, 0.07850537449121475, 0.06952057778835297, 0.010018458589911461, 0.05883856490254402, -0.06641745567321777, 0.1065194383263588, 0.0841275081038475, 0.09773664176464081, -0.1119062528014183, 0.11753635108470917, 0.17370985448360443, 0.06040286645293236, 0.1671801209449768, 0.22643722593784332, 0.013985390774905682, -0.05775139108300209, -0.23493438959121704, -0.032930050045251846, 0.10737217217683792, 0.10561256855726242, -0.0524715930223465, -0.056133758276700974, 0.08764225989580154, -0.062485724687576294, -0.15427826344966888, -0.12632432579994202, 0.15246747434139252, -0.08944347500801086, 0.2381163239479065, -0.26853108406066895, -0.07867431640625], [0.5883194804191589, 0.16787093877792358, 0.22580601274967194, 0.0011576581746339798, 0.13748733699321747, -0.24798335134983063, -0.11127180606126785, -0.14431118965148926, 0.24023887515068054, 0.014673169702291489, 0.46281036734580994, -0.017846660688519478, 0.1236843392252922, 0.051237963140010834, -0.21997052431106567, 0.20292766392230988, -0.629172682762146, 0.12471199780702591, -0.3575841188430786, 0.1474395990371704, 0.13094282150268555, 0.2658326327800751, 0.2034839540719986, 0.4126952588558197, 0.014443577267229557, 0.15381689369678497, 0.17594434320926666, -0.14953704178333282, -0.321650892496109, 0.2789008319377899, 0.052952684462070465, 0.0677601620554924, 0.2656891644001007, 0.0778784453868866, 0.08915892988443375, 0.10526460409164429, -0.015946174040436745, 0.38632988929748535, 0.4159596264362335, 0.17750093340873718, 0.008793056942522526, 0.031839773058891296, -0.12706442177295685, 0.02098003774881363, 0.1024959534406662, 0.10949447751045227, 0.020019156858325005, -0.31171682476997375, 0.11289101839065552, -0.211753249168396, -0.032814327627420425, -0.31154561042785645, 0.07298963516950607, 0.03908124938607216, -0.4517274796962738, 0.1147802472114563, 0.4901144504547119, 0.22923171520233154, 0.22783082723617554, -0.09282097965478897, 0.026002485305070877, -0.1451830416917801, 0.6822436451911926, 0.5046118497848511], [0.3472658097743988, 0.14508508145809174, 0.1863774061203003, -0.017997929826378822, -0.0646534413099289, -0.18370690941810608, -0.15296651422977448, 0.06253676861524582, 0.05166918784379959, 0.0709344744682312, 0.16884972155094147, 0.0880085676908493, -0.01515963114798069, 0.017277713865041733, -0.15194708108901978, 0.21838489174842834, -0.5488383173942566, 0.008550484664738178, -0.05634414032101631, -0.06038057059049606, 0.13698287308216095, 0.19747400283813477, -0.011166279204189777, 0.23969458043575287, -0.01737912744283676, -0.17310500144958496, 0.14322559535503387, -0.07160338759422302, -0.4365238547325134, 0.15574711561203003, 0.12982971966266632, -0.04442041739821434, 0.06828121840953827, 0.33976078033447266, -0.052073631435632706, 0.18982261419296265, -0.09957586228847504, 0.34567004442214966, 0.5247844457626343, 0.4256405532360077, 0.009969404898583889, 0.020964795723557472, 0.2315879464149475, 0.2999575734138489, 0.2533571422100067, -0.1091846376657486, -0.045583102852106094, -0.3541228473186493, 0.08646617084741592, -0.2438475340604782, -0.10084701329469681, 0.04710996523499489, 0.013376697897911072, -0.020340846851468086, -0.09943525493144989, 0.024711979553103447, 0.19173140823841095, -0.005789889022707939, 0.03735177218914032, 0.010774647817015648, -0.005277286749333143, 0.028693851083517075, 0.4064503312110901, 0.3558116853237152], [-0.19852815568447113, 0.1014685109257698, -0.19206586480140686, 0.05724908411502838, -0.13123422861099243, 0.11926963925361633, 0.13975687325000763, 0.27194055914878845, -0.0712084174156189, -0.0952662006020546, -0.24979127943515778, -0.07297366112470627, -0.12310366332530975, -0.08064351230859756, 0.02897856943309307, -0.11071128398180008, 0.11766477674245834, -0.08053022623062134, 0.14321312308311462, 0.033068884164094925, -0.14249777793884277, -0.13643398880958557, -0.026659267023205757, 0.031089482828974724, 0.010127502493560314, -0.2965530455112457, -0.10127150267362595, 0.15936915576457977, 0.19020982086658478, -0.08626402169466019, -0.10210859775543213, -0.02989893965423107, -0.20748838782310486, -0.16562269628047943, 0.0101540582254529, -0.194721981883049, 0.0841664969921112, -0.12252841889858246, -0.15221087634563446, 0.005016396753489971, 0.07271542400121689, 0.04576705023646355, 0.11211000382900238, 0.20840689539909363, 0.20616261661052704, -0.18673519790172577, 0.040949415415525436, -0.032475367188453674, -0.01616722345352173, 0.09110861271619797, -0.1427818387746811, 0.35887739062309265, -0.009681833907961845, -0.052589260041713715, 0.15423254668712616, -0.1097799614071846, -0.12169378250837326, -0.016314132139086723, -0.06234326958656311, -0.12973599135875702, -0.18072427809238434, -0.025027165189385414, -0.2744312882423401, 0.07169384509325027], [-0.10603772103786469, -0.28589507937431335, 0.20300890505313873, 0.31566184759140015, -0.286990761756897, 0.2373008280992508, 0.5006084442138672, -0.37033671140670776, -0.3673953711986542, 0.08346958458423615, -0.06476651132106781, 0.21787288784980774, 0.09053369611501694, -0.11255346238613129, 0.3423362374305725, -0.1304018795490265, 0.5681662559509277, -0.25500747561454773, -0.03719830885529518, -0.25633320212364197, -0.2241034209728241, 0.19534914195537567, -0.3294657766819, 0.1776004582643509, 0.027007032185792923, 0.3513050377368927, -0.28474369645118713, 0.05381780117750168, 0.6214800477027893, 0.157522052526474, 0.271375447511673, -0.2430408000946045, -0.0956445038318634, -0.2035105675458908, -0.3742122948169708, -0.3652573823928833, 0.1652800738811493, -0.01865437813103199, -0.5431806445121765, -0.34566667675971985, -0.035462986677885056, -0.10017991065979004, -0.16924753785133362, -0.33704623579978943, -0.3351312279701233, 0.3284899890422821, -0.23136083781719208, 0.5156703591346741, -0.1149725392460823, 0.017505234107375145, -0.23971962928771973, -0.27024173736572266, 0.26731228828430176, -0.276037335395813, 0.2322986125946045, 0.2659774720668793, 0.12255880236625671, -0.34064140915870667, 0.10766278207302094, 0.48383867740631104, -0.28945213556289673, 0.00236172741279006, -0.5619056224822998, -0.46755948662757874], [-0.3916786313056946, -0.03562195971608162, -0.08549489080905914, 0.03756268694996834, -0.02457195706665516, 0.09324396401643753, -0.10941629856824875, 0.2150629162788391, -0.06741692870855331, 0.09815686196088791, -0.40021035075187683, -0.18763521313667297, -0.017146803438663483, -0.10196267068386078, 0.048582348972558975, -0.24567610025405884, 0.23424459993839264, -0.002974945120513439, 0.4112890064716339, -0.07975289225578308, -0.04801975563168526, -0.0542534701526165, 0.005610422231256962, -0.11140456795692444, -0.006190380081534386, -0.25833436846733093, 0.008685945533216, 0.04247494041919708, 0.10542867332696915, -0.20588552951812744, 0.03015829809010029, -0.13858605921268463, -0.19255314767360687, -0.1775221824645996, -0.14823094010353088, -0.012771373614668846, -0.017926886677742004, -0.11182188987731934, 0.04274800792336464, 0.13315261900424957, -0.04946545884013176, -0.11821450293064117, 0.04428277164697647, 0.07382747530937195, 0.29792320728302, -0.31202995777130127, 0.231950581073761, -0.011543573811650276, 0.04790372774004936, -0.058051493018865585, -0.00019704841542989016, 0.27945584058761597, -0.004871470388025045, -0.17002269625663757, 0.18470437824726105, -0.12641137838363647, -0.27225616574287415, -0.1475161910057068, 0.054500024765729904, 0.06590040773153305, -0.07589389383792877, -0.024691274389624596, -0.21770794689655304, 0.1681135594844818], [0.0023869278375059366, 0.14063751697540283, 0.03551258146762848, -0.2561631500720978, -0.21517738699913025, 0.08612560480833054, 0.18183740973472595, 0.032191451638936996, 0.06017052009701729, 0.06354764848947525, 0.08732672780752182, -0.024085277691483498, 0.027014659717679024, -0.06679593771696091, -0.37448376417160034, 0.06656195968389511, -0.036544881761074066, -0.12880291044712067, 0.009005782194435596, -0.09207382053136826, 0.010802064090967178, 0.08740737289190292, 0.09899068623781204, -0.003923394717276096, -0.09345108270645142, -0.23262368142604828, -0.024516146630048752, 0.11101021617650986, -0.09765864163637161, 0.3140684962272644, 0.18100033700466156, -0.1337583214044571, 0.17429383099079132, 0.012890128418803215, -0.002089317888021469, -0.07274850457906723, 0.01693583093583584, -0.09798511862754822, 0.16374436020851135, 0.42169976234436035, -0.03372395038604736, -0.10449815541505814, 0.1769738495349884, 0.2675459682941437, 0.307199627161026, -0.0722271278500557, 0.16066768765449524, -0.09435269981622696, -0.09943154454231262, -0.335662841796875, 0.039172057062387466, -0.14517033100128174, 0.07511045783758163, -0.06576918065547943, -0.11022084951400757, -0.025102991610765457, 0.019932160153985023, 0.02853240631520748, -0.06318552792072296, 0.10005488246679306, -0.013501507230103016, 0.06780707836151123, 0.12463413923978806, 0.14479516446590424], [0.34427088499069214, 0.21756382286548615, 0.0046118334867060184, 0.19777411222457886, -0.21350854635238647, -0.1684349924325943, -0.16860626637935638, -0.08899401128292084, -0.07574593275785446, 0.15448690950870514, 0.1362065076828003, 0.0832832008600235, -0.001085980562493205, -0.10085898637771606, -0.34780052304267883, 0.2523116171360016, -0.27565643191337585, -0.04829460754990578, -0.26860469579696655, -0.01872861012816429, 0.04066041484475136, 0.16725283861160278, -0.08116457611322403, 0.16030550003051758, -0.1674797236919403, -0.028822241351008415, -0.015340911224484444, 0.035039402544498444, -0.2605034112930298, 0.10867150872945786, 0.10776273161172867, -0.15411299467086792, 0.13785766065120697, 0.15834954380989075, -0.16451328992843628, -0.30784907937049866, 0.08525396883487701, 0.1665392369031906, 0.21107493340969086, 0.19638484716415405, -0.051299452781677246, -0.1397918462753296, 0.1897117644548416, 0.0012365691363811493, 0.009708978235721588, 0.19065093994140625, -0.23039160668849945, -0.17672617733478546, -0.12225591391324997, -0.28126487135887146, -0.014464210718870163, 0.006865819450467825, 0.03299882262945175, 0.011522439308464527, -0.3930922746658325, -0.02380410023033619, 0.08141428977251053, -0.11608537286520004, 0.21900145709514618, -0.18130122125148773, 0.02086060866713524, 0.04685947299003601, -0.01287164632230997, 0.16672249138355255], [-0.12792547047138214, -0.055589139461517334, -0.08633124083280563, 0.14524127542972565, -0.014397799968719482, 0.14601802825927734, -0.14463379979133606, 0.21665656566619873, -0.16600742936134338, 0.026901058852672577, -0.35287579894065857, -0.058718133717775345, -0.10033304989337921, -0.04123178869485855, 0.07248588651418686, -0.1937633603811264, 0.1259654313325882, -0.0032041233498603106, 0.1599399298429489, -0.05828569084405899, -0.05371805652976036, -0.18679279088974, 0.05299396067857742, -0.2494702935218811, -0.007118018344044685, -0.30872347950935364, -0.14277544617652893, 0.15944495797157288, 0.10425516963005066, -0.02617129124701023, -0.07929496467113495, -0.059567127376794815, -0.08835131675004959, -0.05145086348056793, -0.18278126418590546, -0.1287127584218979, -0.12279254198074341, -0.22038400173187256, -0.015370315872132778, 0.11953520774841309, -0.06069884076714516, -0.07781939208507538, -0.011127742938697338, 0.0628349706530571, 0.011824022978544235, -0.10910798609256744, -0.06750667840242386, 0.09823349118232727, 0.053882915526628494, 0.09913437813520432, -0.06367497146129608, 0.3449384272098541, 0.11353667080402374, 0.003813129384070635, 0.22125735878944397, -0.15768280625343323, -0.0645819902420044, 0.026952257379889488, 0.04998841881752014, -0.04760269448161125, -0.07235507667064667, 0.16115424036979675, -0.18159045279026031, -0.020351776853203773], [-0.2649039924144745, -0.014000922441482544, -0.09366142749786377, -0.033470455557107925, 0.11179476231336594, -0.0033788043074309826, -0.020609702914953232, 0.2871783673763275, -0.07385104894638062, 0.18355053663253784, -0.22004497051239014, -0.25357282161712646, 0.02879195846617222, -0.19500412046909332, 0.032149557024240494, -0.12288641184568405, 0.30238819122314453, 0.02528093382716179, 0.3881974518299103, -0.09836406260728836, 0.06477788090705872, -0.14240336418151855, 0.04263169318437576, -0.23002521693706512, -0.005958718713372946, -0.20490027964115143, -0.17961561679840088, 0.10210735350847244, -0.007609118707478046, -0.1350158005952835, -0.015478527173399925, -0.1703891158103943, -0.2472551017999649, -0.16407939791679382, -0.1348135620355606, -0.10213848203420639, -0.08970792591571808, -0.2615338861942291, 0.06588828563690186, 0.039160531014204025, -0.03336329013109207, -0.1482980102300644, 0.00905091967433691, 0.1366574764251709, 0.29311442375183105, -0.3239229917526245, 0.0581517294049263, 0.019094308838248253, 0.02467375434935093, 0.15100990235805511, -0.06311727315187454, 0.47110825777053833, -0.1586924046278, -0.06362257897853851, 0.38709911704063416, -0.2304631769657135, -0.11371644586324692, -0.04606463015079498, -0.013811980374157429, -0.006863096728920937, -0.16276513040065765, -0.002370681846514344, -0.2170485109090805, 0.09788054972887039], [0.1057383194565773, 0.15098462998867035, 0.1435815989971161, 0.1997232288122177, -0.1434071660041809, -0.360989511013031, -0.05051172152161598, 0.2755497395992279, -0.1358722299337387, 0.22904755175113678, 0.07588627934455872, -0.09599047154188156, -0.19682137668132782, -0.10179057717323303, -0.2743149697780609, -0.03486514091491699, -0.3261588513851166, -0.2737533748149872, -0.041697464883327484, -0.04496720805764198, -0.17142410576343536, -0.032234903424978256, 0.03633629158139229, 0.023631498217582703, -0.1842370182275772, -0.4705130159854889, -0.1793285459280014, 0.24941560626029968, -0.09620755165815353, 0.009986474178731441, 0.03742961212992668, -0.1094038188457489, 0.018394501879811287, 0.19436463713645935, -0.09734359383583069, -0.2247862070798874, 0.10581298917531967, 0.11623875796794891, 0.2205146849155426, 0.35246413946151733, -0.10844956338405609, -0.05910146236419678, 0.1289476454257965, 0.30593350529670715, 0.3246074616909027, -0.0883856788277626, -0.23192860186100006, -0.21839740872383118, -0.2426823228597641, -0.43400976061820984, -0.1371155083179474, 0.21973174810409546, 0.25884300470352173, 0.04107986018061638, -0.11471826583147049, -0.026943670585751534, -0.016976282000541687, -0.14423581957817078, 0.16261109709739685, 0.00672202417626977, -0.08176495134830475, 0.42823493480682373, -0.13196012377738953, 0.3512738347053528], [0.20154620707035065, 0.4051673412322998, -0.0030643874779343605, -0.16945861279964447, 0.3306652307510376, -0.006155779585242271, 0.08829805254936218, 0.46123138070106506, 0.23759423196315765, 0.03587964177131653, 0.33774447441101074, -0.0633821114897728, -0.1383507251739502, 0.19325681030750275, -0.20271487534046173, 0.32591748237609863, -0.22128058969974518, 0.1323627233505249, 0.43550485372543335, -0.09316342324018478, 0.3302009105682373, 0.016140686348080635, 0.11812450736761093, 0.07314926385879517, -0.15813928842544556, -0.2069307565689087, 0.2802458703517914, 0.013912930153310299, -0.25167015194892883, 0.11568459123373032, -0.08191531151533127, 0.09011591970920563, 0.36899784207344055, 0.43821653723716736, 0.28258004784584045, 0.4584093987941742, -0.2328900694847107, 0.1354159563779831, 0.46655505895614624, 0.5901026725769043, -0.1211625337600708, 0.11339844763278961, 0.293171226978302, 0.5623064637184143, 0.4893253445625305, -0.2517569959163666, 0.5726324915885925, -0.153196319937706, 0.36750364303588867, 0.15508760511875153, -0.053000401705503464, 0.2732731103897095, 0.0840432345867157, 0.02143361046910286, 0.07616835087537766, -0.15923012793064117, 0.3259923458099365, 0.22933602333068848, 0.1641702651977539, -0.052476584911346436, -0.058741677552461624, -0.04146014153957367, 0.6099023818969727, 0.5716918110847473], [-0.2481284737586975, -0.06240097060799599, 0.15300168097019196, 0.3331255316734314, -0.3357829749584198, -0.07554148882627487, 0.33101606369018555, 0.05320098623633385, -0.34131112694740295, 0.15723364055156708, -0.07701290398836136, 0.20604634284973145, -0.09667537361383438, -0.22172001004219055, 0.1406133770942688, -0.0030911406502127647, 0.34227797389030457, -0.22013716399669647, 0.20769618451595306, -0.25537100434303284, -0.0980236828327179, 0.0004737109993584454, -0.1623292714357376, -0.06639130413532257, 0.036502283066511154, 0.05685221403837204, -0.11099707335233688, 0.25332748889923096, 0.7278434038162231, -0.00947792362421751, 0.27051496505737305, -0.009587482549250126, -0.15090367197990417, 0.17406773567199707, -0.228761225938797, -0.32005125284194946, 0.24731385707855225, -0.017278486862778664, -0.4226672351360321, -0.2792080044746399, -0.09972700476646423, -0.14578524231910706, 0.1068207174539566, -0.14669539034366608, -0.19430087506771088, 0.33941060304641724, -0.32180652022361755, 0.4502899646759033, -0.25333350896835327, 0.02490651234984398, -0.1779365837574005, 0.26425573229789734, 0.2440253347158432, -0.04113595560193062, 0.2714030146598816, 0.15202844142913818, -0.2750054895877838, -0.32258760929107666, 0.1136876791715622, 0.4240018129348755, -0.1502087563276291, 0.3770211935043335, -0.6520816683769226, -0.3947613835334778], [0.1270419955253601, 0.22190722823143005, 0.1681361198425293, 0.226753830909729, -0.06307961046695709, -0.25972533226013184, 0.030479777604341507, 0.28688472509384155, -0.026492051780223846, 0.18541768193244934, -0.1807015985250473, -0.024001378566026688, 0.01070867944508791, -0.14464445412158966, -0.373121052980423, 0.0696907714009285, -0.234880268573761, -0.1258954405784607, -0.06871488690376282, -0.16913534700870514, -0.0550667941570282, 0.22186654806137085, -0.018235905095934868, -0.0702362209558487, -0.1994207501411438, -0.539248526096344, -0.02371327579021454, 0.05205006152391434, -0.12269525974988937, -0.08188166469335556, 0.020641498267650604, 0.0031287306919693947, 0.15793883800506592, 0.20597076416015625, -0.1836405247449875, 0.14737805724143982, 0.06703875213861465, 0.19730176031589508, 0.3097381889820099, 0.27468058466911316, -0.10786233097314835, -0.04913947731256485, 0.12817738950252533, 0.3113630414009094, 0.259090393781662, -0.059096742421388626, 0.0724361464381218, -0.3665359616279602, -0.14088895916938782, -0.13778673112392426, -0.014495857059955597, 0.37522709369659424, 0.10868102312088013, 0.08493473380804062, -0.09330758452415466, 0.019007552415132523, -0.0026422860100865364, -0.06511495262384415, 0.07836324721574783, -0.1091061383485794, 0.099436454474926, 0.3349860906600952, 0.0659162849187851, 0.4333963990211487], [0.31949466466903687, 0.017416808754205704, 0.1631413996219635, 0.14868363738059998, -0.0680927038192749, -0.16447198390960693, -0.03247343376278877, -0.1688929796218872, -0.10365229099988937, -0.06306993216276169, 0.27742743492126465, 0.25214049220085144, 0.03189055249094963, -0.15711884200572968, -0.1942673772573471, 0.24482601881027222, -0.254605233669281, -0.0907764583826065, -0.5024456977844238, -0.016629749909043312, -0.12837325036525726, 0.22004355490207672, -0.10476749390363693, 0.12842397391796112, 0.018902815878391266, 0.19415906071662903, 0.01015293039381504, 0.1330428272485733, -0.04528746008872986, 0.011573723517358303, -0.02766922488808632, -0.1471077799797058, 0.15132179856300354, -0.02946341224014759, 0.03639485314488411, -0.18261303007602692, 0.13398343324661255, 0.12308431416749954, -0.008509181439876556, 0.026298344135284424, -0.009221868589520454, -0.09587492793798447, 0.08580414950847626, -0.2116534411907196, -0.13437657058238983, 0.32995790243148804, -0.3432745039463043, -0.15181557834148407, -0.2259211540222168, -0.2977074682712555, -0.08033189922571182, -0.21730276942253113, 0.12276412546634674, -0.12951603531837463, -0.45168814063072205, 0.20834940671920776, 0.2171391397714615, 0.02703017182648182, 0.13102786242961884, -0.07951006293296814, -0.0813557356595993, 0.08959618955850601, 0.13220950961112976, 0.042311642318964005], [0.11487072706222534, 0.044874127954244614, 0.1863788664340973, 0.15386582911014557, -0.26700446009635925, -0.06800272315740585, -0.09612532705068588, 0.15031442046165466, -0.09198508411645889, 0.12362245470285416, -0.10410504788160324, 0.015912532806396484, -0.1419094353914261, -0.23227360844612122, -0.23372989892959595, 0.20267122983932495, -0.3016125559806824, -0.09210043400526047, 0.004634597338736057, -0.12525928020477295, -0.1630147099494934, 0.04534607008099556, -0.09220422804355621, 0.06147823855280876, -0.2692754566669464, -0.4230839014053345, -0.016231942921876907, 0.30083179473876953, -0.0854574516415596, -0.04624271020293236, -0.07788444310426712, -0.14250271022319794, 0.06663181632757187, 0.15742561221122742, -0.20833803713321686, -0.017100796103477478, -0.03816397488117218, 0.06430305540561676, 0.35826757550239563, 0.24799850583076477, 0.01115452591329813, -0.12112606316804886, 0.0383065789937973, 0.40477848052978516, 0.35567396879196167, 0.016423124819993973, 0.09590984135866165, -0.3747028410434723, -0.010237348265945911, -0.34245073795318604, -0.1319955438375473, 0.3044198155403137, -0.029467467218637466, -0.03599507361650467, 0.044831447303295135, 0.1709880530834198, -0.15082713961601257, -0.19471891224384308, -0.06669940799474716, 0.0804867297410965, -0.09856023639440536, 0.2508482336997986, -0.0012658825144171715, 0.34002700448036194], [0.2505055069923401, -0.02599043771624565, -0.00772428372874856, 0.3532854914665222, -0.26268619298934937, -0.3734576106071472, -0.01001579686999321, 0.02306082285940647, -0.06438840180635452, 0.19626525044441223, -0.10996110737323761, 0.17526331543922424, -0.19379211962223053, -0.22506268322467804, -0.20755617320537567, 0.20638887584209442, -0.4625760614871979, -0.09487401694059372, -0.3182165324687958, -0.10738729685544968, -0.026604071259498596, 0.1553073525428772, 0.057101067155599594, 0.162953183054924, -0.07527677714824677, -0.31147128343582153, -0.18446949124336243, 0.09420096129179001, 0.1791515350341797, -0.0292019285261631, 0.014069892466068268, -0.01147560216486454, -0.06260909140110016, 0.08837646245956421, -0.15493515133857727, -0.24249809980392456, 0.07360392808914185, 0.2549128234386444, 0.16116875410079956, 0.2380080372095108, -0.12574662268161774, -0.11302690953016281, -0.008864994160830975, 0.290081262588501, 0.08087238669395447, 0.25586700439453125, -0.21000908315181732, -0.22301378846168518, -0.06442578136920929, -0.33746010065078735, -0.12643450498580933, 0.2890978157520294, 0.1698317676782608, -0.08425605297088623, -0.1804816573858261, 0.1036275327205658, 0.01720263622701168, -0.1313799023628235, 0.012812647968530655, -0.10596099495887756, -0.08322077989578247, 0.258175253868103, -0.022678880020976067, 0.3214772343635559], [0.18283551931381226, -0.025732358917593956, 0.16099268198013306, 0.31768620014190674, -0.20551389455795288, -0.08754418045282364, 0.08883392810821533, -0.10895185172557831, -0.011880326084792614, 0.20379115641117096, -0.061294473707675934, 0.21727077662944794, 0.10431267321109772, -0.057072095572948456, -0.3387036621570587, 0.22094711661338806, -0.29722630977630615, -0.17705442011356354, -0.2767968773841858, -0.13891564309597015, -0.08371376246213913, 0.19137617945671082, -0.1003878191113472, 0.009322084486484528, 0.05837114155292511, -0.1373482048511505, -0.13077379763126373, 0.1830427646636963, 0.2513534724712372, 0.17138241231441498, -0.030268369242548943, 0.0398445762693882, -0.0032462102826684713, 0.2664099335670471, -0.18542611598968506, -0.36896976828575134, 0.2753070890903473, 0.15416604280471802, -0.11602630466222763, -0.07811182737350464, -0.1217866986989975, -0.08016430586576462, -0.036738138645887375, -0.12334176152944565, -0.22260406613349915, 0.2408909648656845, -0.3902077376842499, 0.12352034449577332, -0.04905753582715988, -0.471190482378006, 0.09729431569576263, 0.12849308550357819, 0.20714575052261353, 0.09147968888282776, -0.4795949459075928, 0.25323644280433655, 0.0008110901108011603, -0.1838601529598236, -0.03973960503935814, 0.19295145571231842, -0.09843726456165314, 0.3425981104373932, -0.07208147644996643, 0.025695526972413063], [0.3436579406261444, 0.14858877658843994, -0.05136725306510925, 0.10044192522764206, 0.19697682559490204, -0.2770511209964752, -0.0443374328315258, -0.46476081013679504, 0.12089813500642776, -0.17894405126571655, 0.5316256284713745, -0.018910501152276993, -0.04019749537110329, 0.13997113704681396, 0.3023413121700287, 0.1331484615802765, -0.2807311713695526, 0.2024141252040863, -0.4189828336238861, -0.06277227401733398, 0.030161015689373016, 0.18178437650203705, 0.028028257191181183, 0.5403362512588501, 0.13164262473583221, 0.4847412705421448, 0.0476154200732708, -0.3224024474620819, -0.28694266080856323, 0.3558023273944855, 0.10345663875341415, -0.2864954471588135, 0.250453382730484, 0.030422577634453773, 0.07562168687582016, -0.0523102805018425, -0.09181555360555649, 0.2480045109987259, 0.18544654548168182, 0.07224448770284653, 0.07108210772275925, 0.005206836387515068, 0.1562085896730423, -0.20158560574054718, -0.10047335922718048, 0.07303083688020706, -0.009878454729914665, -0.0425746887922287, -0.07189372926950455, 0.15612085163593292, -0.26874759793281555, -0.6522855758666992, 0.1109464168548584, -0.14944639801979065, -0.2955942749977112, 0.10263761132955551, 0.6213435530662537, 0.04904031753540039, 0.06303723901510239, -0.0002097610995406285, -0.12175267189741135, -0.44498592615127563, 0.5043368935585022, 0.17202933132648468], [-0.19821777939796448, 0.042044322937726974, -0.09370043128728867, -0.03682783618569374, -0.010911641642451286, -0.046471282839775085, 0.11109897494316101, -0.0787913128733635, 0.07085452973842621, -0.04571497067809105, -0.06301712989807129, -0.02122657001018524, -0.04684966057538986, -0.029456734657287598, 0.20819373428821564, -0.03636638820171356, 0.20817413926124573, 0.06376685202121735, 0.15573547780513763, 0.06179580092430115, -0.0707356184720993, -0.02108476497232914, -0.08431701362133026, -0.10270582139492035, -0.09182017296552658, -0.03265756368637085, -0.013573950156569481, 0.04633462801575661, 0.04960134997963905, -0.24313144385814667, -0.1779753416776657, -0.0010576181812211871, -0.0837046429514885, -0.35766270756721497, -0.07826819270849228, 0.09703510254621506, -0.07284228503704071, -0.036906808614730835, -0.052128612995147705, -0.18257467448711395, -0.050346653908491135, 0.08570720255374908, -0.13009041547775269, 0.08995701372623444, -0.15362557768821716, -0.06664334982633591, 0.17918844521045685, 0.01219132449477911, 0.07912617176771164, 0.22180664539337158, 0.1156478151679039, -0.007059572264552116, -0.046024177223443985, 0.0517590269446373, 0.2487991452217102, 0.10983879119157791, 0.012255839072167873, 0.09275995939970016, -0.010474815964698792, -0.2504275441169739, -0.08444680273532867, -0.15963910520076752, 0.026278221979737282, -0.11210961639881134], [0.20586207509040833, 0.20979763567447662, 0.18903404474258423, -0.10970166325569153, 0.03536319360136986, -0.2170448899269104, -0.3087262213230133, 0.27122652530670166, -0.08963523805141449, 0.1532345414161682, 0.0650562047958374, 0.030246660113334656, -0.14039982855319977, 0.039831820875406265, -0.25333231687545776, 0.2723056674003601, -0.24024103581905365, -0.15557648241519928, 0.13541704416275024, -0.009910873137414455, 0.04111991077661514, 0.12500812113285065, 0.033789705485105515, -0.0705634281039238, -0.05462808907032013, -0.25398415327072144, 0.08379461616277695, 0.22085103392601013, -0.3094293177127838, -0.026721205562353134, 0.10847152769565582, 0.05304591730237007, 0.027064109221100807, 0.4769222140312195, 0.05892346054315567, -0.0064196218736469746, 0.1336013525724411, -0.03077145852148533, 0.46072709560394287, 0.3447961211204529, -0.09177659451961517, -0.010250207968056202, 0.1983082890510559, 0.4279557764530182, 0.3121199905872345, 0.04998583719134331, 0.1409340798854828, -0.30264773964881897, -0.0164080411195755, -0.28544706106185913, 0.013937301933765411, 0.3367866575717926, -0.13739292323589325, 0.06323447078466415, -0.20050767064094543, -0.09339328110218048, -0.11380535364151001, 0.06444235146045685, -0.035826925188302994, -0.020234474912285805, -0.008736250922083855, 0.2930904030799866, 0.2831185460090637, 0.41846683621406555], [-0.13548453152179718, -0.042434971779584885, 0.09326764196157455, -0.3370368480682373, -0.17893780767917633, 0.16936156153678894, 0.37211254239082336, 0.12454023957252502, 0.14471693336963654, 0.12242302298545837, -0.17178402841091156, 0.04935213923454285, -0.04002687707543373, -0.020808540284633636, -0.3173716068267822, -0.026740413159132004, 0.29270246624946594, -0.015355258248746395, 0.2498210221529007, -0.16591672599315643, -0.025219298899173737, 0.19750064611434937, 0.12988553941249847, -0.1859484612941742, 0.0637868121266365, -0.35726866126060486, 0.11192503571510315, -0.02080393396317959, 0.2475815862417221, 0.16738459467887878, 0.2557451128959656, 0.17121835052967072, 0.13573947548866272, -0.16718631982803345, -0.0740102231502533, 0.2270277887582779, -0.1322121024131775, 0.021754227578639984, -0.07564732432365417, 0.17792996764183044, 0.032589465379714966, -0.015351956710219383, 0.03806193917989731, 0.2304685264825821, 0.2558579742908478, 0.0007218293030746281, 0.12136134505271912, 0.020361412316560745, -0.005910390522330999, -0.1375374048948288, 0.06535527110099792, -0.08084266632795334, -0.006686089094728231, -0.04080580547451973, 0.09842360019683838, 0.006236283108592033, -0.045124247670173645, 0.11993488669395447, -0.1229354739189148, 0.3601214587688446, 0.00716098677366972, 0.06987186521291733, 0.00045657597365789115, -0.318208783864975], [0.1963409185409546, 0.022213004529476166, 0.0610080249607563, 0.2614699900150299, -0.2050982415676117, -0.17740556597709656, 0.36743682622909546, -0.7025645971298218, -0.20504550635814667, -0.17711439728736877, 0.33476582169532776, 0.07432280480861664, -0.1806497424840927, -0.026486216112971306, 0.34662365913391113, -0.15680857002735138, 0.17903409898281097, 0.10556735843420029, -0.4751972556114197, -0.08221577107906342, -0.2544802725315094, -0.04811771959066391, -0.2910439074039459, 0.41268205642700195, 0.10900729149580002, 0.3369442820549011, -0.2949683666229248, -0.17688044905662537, 0.46229854226112366, 0.00487987045198679, 0.17146503925323486, -0.30989766120910645, 0.2372831106185913, -0.33486515283584595, -0.15633483231067657, -0.4445325434207916, 0.05544732138514519, 0.22047267854213715, -0.17043782770633698, -0.31331363320350647, 0.02674606256186962, -0.005504348315298557, -0.12427245080471039, -0.4387151598930359, -0.34425997734069824, 0.10681548714637756, -0.31827864050865173, 0.35222864151000977, -0.07882453501224518, 0.11515551060438156, -0.12103594094514847, -0.5705274343490601, 0.09442288428544998, -0.10577134788036346, 0.13054132461547852, 0.2971958816051483, 0.2336515486240387, 0.01955624483525753, 0.2327054888010025, 0.2647213637828827, -0.14808666706085205, -0.3221781253814697, -0.08252817392349243, -0.4049513041973114], [0.27087879180908203, 0.0422908179461956, 0.1375565081834793, -0.1372213512659073, -0.011700510047376156, -0.2225545197725296, -0.2536104917526245, -0.1092524603009224, 0.139373779296875, 0.03983885422348976, 0.08098600804805756, 0.19468405842781067, -0.06677697598934174, -0.07754354923963547, -0.1482873111963272, 0.31774771213531494, -0.363699734210968, 0.08653897047042847, -0.23176223039627075, 0.037395723164081573, 0.07750809192657471, 0.17363384366035461, 0.036400992423295975, 0.06855344772338867, 0.06391157954931259, 0.08318131417036057, 0.1159772053360939, -4.35029505752027e-06, -0.2245430052280426, 0.19884279370307922, 0.09130019694566727, 0.0747760757803917, 0.1698562502861023, 0.3902391493320465, 0.14281244575977325, -0.03650161623954773, 0.07454484701156616, 0.19130222499370575, 0.305861234664917, 0.2177233099937439, 0.06970304250717163, -0.09536349028348923, 0.057025134563446045, 0.157425194978714, 0.10969516634941101, 0.17960765957832336, -0.11378125846385956, -0.2604779005050659, -0.007428615354001522, -0.07839711755514145, -0.0590163953602314, -0.0011557264951989055, 0.01631711795926094, -0.007722222711890936, -0.38335153460502625, 0.1621181070804596, 0.017450714483857155, 0.010052463971078396, 0.021095028147101402, -0.16280920803546906, -0.019262587651610374, 0.04553752765059471, 0.30623021721839905, 0.31493255496025085], [-0.1489734649658203, -0.16375359892845154, 0.035104088485240936, 0.03215089440345764, 0.05314153432846069, -0.022129930555820465, -0.0643039271235466, 0.16926568746566772, 0.08865291625261307, -0.04524495080113411, -0.1877954751253128, -0.04437540844082832, -0.13991743326187134, -0.06580376625061035, 0.039072830229997635, -0.12560515105724335, 0.36437609791755676, -0.12055113911628723, 0.26908382773399353, -0.03629561513662338, -0.015190375037491322, -0.20522545278072357, -0.06498319655656815, -0.35468822717666626, 0.0607123002409935, -0.23241887986660004, 0.011535190977156162, 0.0533110648393631, 0.07113321870565414, -0.25828441977500916, 0.011423948220908642, 0.042654115706682205, 0.009567520581185818, -0.09595848619937897, -0.10048241913318634, 0.045022785663604736, 0.059931617230176926, -0.058746010065078735, 0.06842906773090363, 0.11858347803354263, 0.09139011800289154, 0.10838613659143448, -0.03307278826832771, 0.04510582983493805, 0.13349390029907227, -0.24210330843925476, 0.050549644976854324, -0.03186480328440666, 0.03333662450313568, 0.22462281584739685, 0.10275633633136749, 0.26263684034347534, 0.0014353834558278322, 0.10294627398252487, 0.330005019903183, -0.21493598818778992, -0.13683855533599854, -0.11154452711343765, -0.13606294989585876, -0.15571196377277374, -0.028161657974123955, -0.0766691043972969, -0.11271696537733078, 0.11536210775375366], [0.28041738271713257, 0.19269756972789764, 0.13240313529968262, -0.022709885612130165, -0.0007340024458244443, -0.3178693950176239, -0.036870624870061874, -0.3710252046585083, -0.09863242506980896, -0.16411153972148895, 0.4480651915073395, 0.11063531786203384, 0.02546585351228714, -0.13732877373695374, -0.15332384407520294, 0.21398955583572388, -0.22472092509269714, -0.0908779501914978, -0.419061541557312, 0.09967409074306488, -0.20734074711799622, 0.21318385004997253, -0.09069624543190002, 0.3694721758365631, -0.14612190425395966, 0.27842938899993896, -0.013908336870372295, 0.0016916610766202211, -0.1588895469903946, 0.24946308135986328, -0.03615688905119896, 0.01822728104889393, 0.07385499030351639, -0.0035632108338177204, -0.06205521151423454, -0.22001215815544128, 0.19475628435611725, 0.3450286388397217, 0.19304607808589935, 0.04207377880811691, -0.013164734467864037, -0.14132341742515564, -0.11997667700052261, -0.11830794811248779, -0.29428502917289734, 0.20734094083309174, -0.2086416482925415, -0.06841234117746353, -0.1839539110660553, -0.24880066514015198, 0.031115366145968437, -0.4473380744457245, 0.06039206311106682, -0.1146906390786171, -0.4373469948768616, 0.1392454355955124, 0.3313484191894531, 0.028518151491880417, 0.20479148626327515, -0.05774301290512085, -0.05686762556433678, -0.17348088324069977, 0.4449920356273651, 0.0965174213051796], [0.3107118308544159, 0.1741565763950348, 0.25214502215385437, 0.078603096306324, -0.22093994915485382, -0.2595580220222473, 0.09939597547054291, 0.11062107235193253, 0.036479901522397995, 0.1367909014225006, 0.1155504360795021, 0.16124238073825836, -0.17168696224689484, 0.02563585713505745, -0.5037392973899841, -0.005945740733295679, -0.5296947360038757, -0.12944209575653076, -0.32694822549819946, -0.09876681119203568, -0.08699135482311249, 0.23267151415348053, 0.05522625893354416, 0.021315807476639748, 0.04314501956105232, -0.3802322447299957, 0.014897068031132221, -0.03720760717988014, -0.1022581160068512, 0.18115489184856415, 0.10561095178127289, -0.007507664151489735, 0.027063198387622833, -0.06679993122816086, 0.08550051599740982, -0.0025922369677573442, 0.16045033931732178, 0.29032331705093384, 0.2439878284931183, 0.17737016081809998, 0.053236205130815506, 0.009895814582705498, -0.14437368512153625, 0.16654598712921143, 0.19437511265277863, 0.058236461132764816, -0.303965300321579, -0.043012380599975586, 0.10953586548566818, -0.4183225631713867, 0.12089009582996368, 0.08827023208141327, 0.2515992522239685, 0.10034605860710144, -0.09489351511001587, 0.05929950997233391, 0.26953548192977905, -0.07731247693300247, 0.10760591179132462, 0.24451172351837158, -0.09002794325351715, 0.14261603355407715, 0.09437115490436554, 0.1012183353304863], [0.29228565096855164, 0.12428799271583557, 0.13992634415626526, 0.3624004125595093, 0.0069327587261796, -0.47695887088775635, -0.12501999735832214, 0.011753850616514683, -0.19055217504501343, 0.18221184611320496, 0.027019448578357697, 0.08935940265655518, -0.18329666554927826, -0.179998517036438, -0.11176047474145889, 0.042306315153837204, -0.29936909675598145, -0.10467534512281418, -0.3540264368057251, -0.08524205535650253, -0.09241421520709991, 0.15062452852725983, -0.07899289578199387, 0.044730283319950104, -0.05309472605586052, -0.4163908362388611, -0.08460062742233276, -0.026377884671092033, -0.03834271803498268, -0.14626964926719666, 0.12426506727933884, -0.1612221896648407, 0.05366568639874458, -0.09346141666173935, 0.008764388971030712, -0.2603585124015808, 0.2071755826473236, 0.18531687557697296, 0.0816461443901062, 0.15438343584537506, -0.06195415183901787, -0.11971507966518402, 0.08242809027433395, 0.04016817361116409, 0.07862424105405807, -0.009610961191356182, -0.4250732362270355, -0.2230105996131897, -0.1633288413286209, -0.15272961556911469, -0.07437223196029663, 0.0868861973285675, 0.1936536282300949, -0.1429031789302826, -0.22860758006572723, 0.21612831950187683, 0.17267969250679016, -0.20204578340053558, 0.13017617166042328, -0.006216307636350393, -0.07759271562099457, 0.34639686346054077, -0.11757560074329376, 0.3409268856048584], [-0.008940206840634346, -0.1087617501616478, 0.0006308969459496439, 0.06913062185049057, -0.11943873763084412, 0.1211850643157959, -0.07548393309116364, -0.1983846127986908, 0.043059106916189194, -0.0007696128450334072, -0.034634191542863846, -0.028838569298386574, -0.1038823127746582, -0.2053520679473877, 0.12458036839962006, -0.15145301818847656, 0.18482550978660583, -0.035688042640686035, 0.05314914882183075, -0.043670494109392166, -0.02635747753083706, -0.07056138664484024, -0.078621506690979, 0.02009868249297142, -0.10974723100662231, 0.020219966769218445, 0.03274019435048103, 0.04224685579538345, -0.14592060446739197, -0.07070019096136093, -0.1774829775094986, -0.039995402097702026, -0.0787748247385025, -0.18028047680854797, 0.017275871708989143, 0.019280530512332916, -0.08332164585590363, -0.09533128142356873, -0.036114517599344254, -0.12471742928028107, -0.16200664639472961, -0.09598216414451599, -0.04948227107524872, 0.1265406310558319, 0.06678789108991623, -0.1037377417087555, 0.10901173949241638, -0.14364241063594818, -0.09326888620853424, 0.23267871141433716, -0.0742834061384201, -0.007570879068225622, 0.06879227608442307, -0.2118827849626541, 0.09364788234233856, -0.11873096972703934, -0.18142510950565338, -0.0922706350684166, 0.0820072814822197, -0.14853665232658386, -0.2112441509962082, -0.019370634108781815, -0.1651017814874649, 0.08804310113191605], [0.05864843726158142, 0.02378355897963047, 0.1503278762102127, 0.24264490604400635, -0.24089883267879486, -0.25780683755874634, -0.06612971425056458, 0.3267506957054138, -0.01699729822576046, 0.0929512083530426, -0.22979171574115753, 0.2151540070772171, -0.07653135806322098, -0.005362244322896004, -0.34280964732170105, 0.02112608216702938, -0.3071214258670807, -0.19664281606674194, -0.06898183375597, 0.006999446544796228, -0.04414990544319153, 0.16204115748405457, -0.03095410205423832, -0.18804478645324707, 0.03436129912734032, -0.43788328766822815, -0.006228471174836159, 0.08510356396436691, 0.1046898141503334, 0.06312146782875061, 0.1811089664697647, -0.021914703771471977, 0.02938501536846161, 0.39763695001602173, -0.03295431658625603, -0.1134176030755043, 0.2864939868450165, -0.0036124761682003736, 0.12310401350259781, 0.20361082255840302, -0.048166725784540176, 0.0019919518381357193, 0.038229089230298996, 0.30795854330062866, 0.08229716867208481, 0.13303719460964203, -0.2626879811286926, 0.06304958462715149, -0.030168583616614342, -0.32776889204978943, 0.06575077772140503, 0.27318549156188965, 0.11378898471593857, -0.10009053349494934, -0.1605111062526703, 0.04473172873258591, -0.04962962493300438, -0.05001668632030487, 0.00889049656689167, 0.034038983285427094, 0.05216385796666145, 0.5369949340820312, -0.34446582198143005, 0.25256937742233276], [-0.0679839551448822, -0.17710696160793304, -0.16866527497768402, 0.14432857930660248, -0.17119990289211273, -0.0944540873169899, -0.041746895760297775, -0.06326931715011597, 0.017754534259438515, -0.030498195439577103, -0.20659483969211578, -0.027374792844057083, 0.03127891197800636, -0.0332995243370533, -0.14260680973529816, -0.07980291545391083, 0.17966867983341217, 0.05263913422822952, 0.059183269739151, 0.1064174696803093, 0.06800961494445801, -0.12567469477653503, -0.0854731872677803, 0.035350482910871506, -0.11287689208984375, 0.06252630800008774, -0.005843642167747021, 0.08212351053953171, 0.1820012629032135, -0.05338828265666962, -0.06664657592773438, -0.14215660095214844, -0.06251857429742813, -0.02947871759533882, -0.11272250860929489, -0.1196623221039772, 0.06460689008235931, -0.16519376635551453, -0.07695472240447998, -0.07028140127658844, -0.11641363054513931, -0.020240020006895065, -0.12461279332637787, -0.1412116438150406, 0.008764777332544327, 0.11228268593549728, -0.002839686581864953, 0.08480003476142883, 0.004032244440168142, -0.16348260641098022, 0.04210174083709717, 0.2848161458969116, 0.12975679337978363, -0.14840784668922424, 0.023110071197152138, 0.11901461333036423, -0.18653260171413422, -0.17235326766967773, -0.027439026162028313, 0.03709108382463455, -0.06362451612949371, 0.0357971265912056, -0.18204998970031738, 0.0631348118185997], [-0.3364807963371277, -0.23955701291561127, -0.03211807832121849, 0.24427491426467896, -0.08474898338317871, 0.41877591609954834, 0.4404594600200653, -0.3820490837097168, -0.2960735261440277, 0.0006097744917497039, 0.1285213828086853, -0.043626490980386734, -0.20962727069854736, -0.2096230387687683, 0.6908409595489502, -0.2882746458053589, 0.6298115253448486, -0.00494768563657999, 0.11507017910480499, -0.10682062804698944, -0.2683834135532379, -0.1619109809398651, -0.3180716037750244, 0.34981369972229004, 0.004804176278412342, 0.28621798753738403, -0.39730170369148254, 0.13207225501537323, 0.6368333101272583, -0.03477069362998009, 0.18272744119167328, -0.3211801052093506, 0.0972236767411232, -0.3412320613861084, -0.2200326919555664, -0.37661871314048767, 0.09744131565093994, 0.004739443305879831, -0.2639828026294708, -0.37478435039520264, -0.09405047446489334, -0.13197818398475647, 0.08698724210262299, -0.32986825704574585, -0.009351802989840508, 0.022607697173953056, -0.19300299882888794, 0.35289546847343445, -0.2767486572265625, 0.4874509871006012, -0.194240540266037, -0.481756329536438, 0.28698793053627014, -0.1528683304786682, 0.7015633583068848, 0.22367194294929504, 0.04873595014214516, -0.11191380023956299, 0.18943838775157928, 0.40809470415115356, -0.34551140666007996, -0.15740546584129333, -0.2976214289665222, -0.40067771077156067], [0.004342042375355959, -0.14434733986854553, 0.0022088915575295687, 0.016952713951468468, -0.045100484043359756, -0.00769661134108901, 0.10732631385326385, 0.014508932828903198, -0.09494577348232269, 0.004281878471374512, -0.10882548242807388, -0.15392954647541046, -0.05666778236627579, -0.05468003451824188, -0.11026834696531296, -0.12834535539150238, -0.055736228823661804, 0.020625613629817963, 0.1866506189107895, -0.032756902277469635, -0.07669990509748459, -0.16876709461212158, 0.12284407764673233, 0.03288620710372925, -0.1452508270740509, -0.05847423896193504, 0.04029569774866104, 0.09039782732725143, 0.028974777087569237, -0.14148549735546112, -0.0683009922504425, 0.07330821454524994, -0.14802007377147675, -0.10679444670677185, -0.03244316577911377, -0.07559987902641296, -0.11173711717128754, 0.007369244005531073, -0.04181748628616333, 0.09138032793998718, 0.04508289694786072, 0.006710335612297058, -0.06316159665584564, 0.08783777803182602, 0.06129654496908188, -0.15516449511051178, -0.08615760505199432, -0.09205210953950882, -0.09154196083545685, -0.006515155546367168, -0.037465810775756836, -0.0021297468338161707, 0.16662169992923737, -0.07291308045387268, 0.19024918973445892, 0.04763163626194, -0.026886245235800743, -0.00036583442124538124, -0.16911637783050537, 0.07048335671424866, 0.014787285588681698, 0.025630904361605644, -0.0685686245560646, -0.07865389436483383], [0.05249739810824394, -0.1432483196258545, 0.051678258925676346, 0.37702542543411255, -0.06089960038661957, -0.07094469666481018, -0.09979823231697083, 0.2885229289531708, 0.035916052758693695, 0.1823185384273529, -0.11501748114824295, 0.11291210353374481, 0.12488780915737152, 0.001615910790860653, -0.03345974162220955, 0.02536644972860813, 0.1475953459739685, -0.1181098073720932, -0.07029622048139572, 0.09099654853343964, 0.07299228757619858, -0.02863672375679016, -0.08842174708843231, -0.17306511104106903, 0.019592713564634323, -0.09949001669883728, 0.02089165523648262, 0.0037047662772238255, 0.3049837052822113, -0.01632336713373661, -0.06333812326192856, 0.12550851702690125, -0.20598351955413818, 0.2208430916070938, -0.05667443200945854, -0.26602739095687866, 0.22348399460315704, -0.12347956001758575, -0.2728903293609619, -0.14669938385486603, 0.04299832507967949, 0.08027762919664383, 0.04392405226826668, -0.17312504351139069, -0.35632994771003723, 0.2735249102115631, -0.4239563047885895, 0.27008354663848877, 0.032306354492902756, -0.10252243280410767, -0.011030064895749092, 0.30751660466194153, 0.025461619719862938, 0.17771796882152557, -0.05368594825267792, -0.02575520984828472, -0.30920782685279846, 0.023714108392596245, 0.10233364999294281, -0.06552845984697342, 0.044635068625211716, 0.5437115430831909, -0.37776875495910645, -0.08152229338884354], [-0.042630527168512344, -0.10786906629800797, -0.17860569059848785, 0.08404865115880966, 0.18554143607616425, -0.149153932929039, -0.1777745634317398, 0.020941540598869324, -0.04980488121509552, -0.07538062334060669, -0.05347425490617752, -0.08525728434324265, 0.046432431787252426, -0.17732137441635132, 0.2088920623064041, -0.12369304895401001, 0.32186952233314514, 0.052736181765794754, 0.16308355331420898, 0.04767236113548279, -0.05615951493382454, 0.016146648675203323, 0.07252828031778336, -0.11704293638467789, -0.019975515082478523, -0.1694527566432953, -0.048226989805698395, -0.013580468483269215, 0.2158260941505432, -0.08704766631126404, -0.1644791066646576, -0.03059857152402401, 0.06937430053949356, -0.2700192332267761, -0.09094028174877167, -0.07052945345640182, 0.008667455986142159, -0.09549134969711304, -0.0012125931680202484, -0.03553394228219986, 0.05255887284874916, -0.10392493009567261, 0.08162645995616913, -0.06337804347276688, -0.09500820189714432, -0.1455572545528412, 0.07287830859422684, 0.06382094323635101, -0.13136689364910126, 0.1466360092163086, 0.0421857014298439, 0.24301275610923767, -0.1746184080839157, -0.052764616906642914, 0.11225882917642593, -0.11516249924898148, -0.19264526665210724, 0.0037634067703038454, 0.1978672593832016, -0.1649361252784729, 0.01955060288310051, -0.17025096714496613, -0.06113692745566368, -0.047490958124399185], [-0.26707836985588074, -0.03904452919960022, -0.14928816258907318, 0.06682978570461273, 0.06456722319126129, 0.04305209591984749, 0.03967875614762306, -0.12363093346357346, 0.0030721595976501703, -0.010934846475720406, -0.06793851405382156, -0.14372357726097107, 0.022738764062523842, 0.0002952720387838781, 0.05914575606584549, -0.038460709154605865, 0.3672696650028229, 0.0962936207652092, 0.10425875335931778, -0.03999762237071991, -0.06333725154399872, -0.05830689147114754, -0.07001112401485443, 0.044777095317840576, 0.012268509715795517, -0.031287383288145065, -0.005016458686441183, -0.055997833609580994, -0.04553898423910141, -0.2096760869026184, -0.07401502132415771, -0.07002485543489456, 0.008881490677595139, -0.08395653963088989, -0.07039538770914078, 0.04875859245657921, -0.10300685465335846, -0.16338253021240234, -0.16494189202785492, -0.08605730533599854, 0.009668189100921154, -0.017810283228754997, -0.035634659230709076, -0.11022572219371796, 0.1500331461429596, -0.17453856766223907, 0.10883525013923645, -0.005393622443079948, 0.04032420367002487, 0.029229121282696724, -0.03912265598773956, 0.0337563119828701, -0.14662010967731476, -0.17742028832435608, 0.24522022902965546, -0.055580638349056244, -0.08519768714904785, 0.03530900180339813, -0.009011266753077507, -0.12587802112102509, -0.18366873264312744, 0.009354825131595135, 0.030670790001749992, -0.059924181550741196], [0.24206013977527618, -0.09529570490121841, 0.12849141657352448, -0.011460887268185616, -0.019835129380226135, -0.014246832579374313, 0.09718295186758041, -0.5640043616294861, -0.07564262300729752, -0.22518520057201385, 0.5424930453300476, 0.16617070138454437, -0.07254412025213242, 0.06038373336195946, 0.344206303358078, 0.11298234760761261, 0.08915718644857407, 0.03178691491484642, -0.4723320007324219, 0.1466153860092163, -0.03298836201429367, 0.023531533777713776, -0.18356722593307495, 0.2623958885669708, 0.10845424234867096, 0.650422215461731, -0.07619505375623703, -0.12408000975847244, 0.04412189871072769, 0.2908858060836792, 0.1537484973669052, -0.28268739581108093, 0.2350020706653595, -0.17163990437984467, 0.09357046335935593, 0.03762384504079819, 0.20500335097312927, 0.18684116005897522, -0.10727700591087341, -0.3625843822956085, -0.17543038725852966, -0.1757575124502182, -0.03689317777752876, -0.3564740717411041, -0.18325255811214447, 0.13244178891181946, -0.12291055917739868, 0.2840880751609802, -0.1422225385904312, 0.13614647090435028, -0.26481541991233826, -0.7171685695648193, 0.03931495174765587, 0.004059404134750366, -0.16245388984680176, 0.1960592418909073, 0.25448474287986755, -0.021397097036242485, 0.3499602973461151, 0.055388033390045166, -0.004801844712346792, -0.32944467663764954, 0.1984059065580368, -0.2904539406299591], [-0.22375386953353882, -0.09916871786117554, 0.05952167883515358, 0.11047103255987167, -0.1639329046010971, 0.03015265055000782, 0.43532565236091614, 0.16347643733024597, -0.1271156221628189, 0.28326255083084106, -0.09395528584718704, 0.21891091763973236, -0.04176768288016319, -0.28692883253097534, -0.18041802942752838, -0.05091502517461777, 0.4996810853481293, -0.3203451335430145, 0.08764580637216568, -0.28249841928482056, -0.2699302136898041, 0.11774797737598419, -0.09407926350831985, 0.02031303197145462, -0.1001652404665947, -0.3134979009628296, -0.1471852958202362, 0.13609613478183746, 0.4276655614376068, -0.036039792001247406, 0.07735441625118256, 0.044476985931396484, -0.11462435871362686, -0.1737893670797348, -0.31980589032173157, -0.32225051522254944, 0.14404812455177307, -0.09835930168628693, -0.3009827733039856, -0.1631116271018982, -0.23159392178058624, -0.2808832824230194, 0.10764459520578384, -0.1154075562953949, -0.0418841727077961, 0.17389820516109467, -0.18178842961788177, 0.2567947506904602, -0.30033960938453674, -0.2390507012605667, -0.06351885944604874, 0.031968165189027786, 0.24495981633663177, -0.09940657019615173, 0.16366010904312134, 0.19493357837200165, -0.05519963800907135, -0.09817546606063843, -0.002482683164998889, 0.33673515915870667, -0.24748864769935608, 0.3291490077972412, -0.48717331886291504, -0.23711879551410675], [0.6381166577339172, 0.18138547241687775, 0.07725423574447632, 0.04333268478512764, 0.033006370067596436, -0.29198241233825684, -0.21429941058158875, -0.5993393659591675, -0.08554486185312271, -0.08591293543577194, 0.6497064828872681, 0.06245066225528717, 0.08382570743560791, 0.13633540272712708, 0.16140404343605042, 0.2950984835624695, -0.2708339989185333, 0.1041039377450943, -0.43255308270454407, 0.19438888132572174, -0.1831657439470291, 0.20388127863407135, -0.034024979919195175, 0.5622112154960632, 0.06311991065740585, 0.5999463796615601, -0.0656982809305191, -0.24420487880706787, -0.3337695300579071, 0.20135654509067535, 0.00646412605419755, -0.19025558233261108, 0.3258175253868103, 0.10183986276388168, 0.20359918475151062, -0.00731516070663929, 0.038222428411245346, 0.32755011320114136, 0.07451142370700836, -0.1788962036371231, -0.09434420615434647, -0.08213113248348236, 0.05631926655769348, -0.14305059611797333, -0.20656120777130127, 0.148624449968338, -0.35384702682495117, -0.10833051800727844, 0.024288611486554146, -0.02650245651602745, -0.14636363089084625, -0.5655325651168823, 